{
  "n_observations": 100,
  "n_features": 10,
  "n_targets": 1,
  "n_hidden_layers": 1,
  "n_hidden_nodes": [
    128
  ],
  "dropout_rates": [
    0.0
  ],
  "targets": [
    0.59361863,
    0.55093205,
    0.04538381,
    0.032401025,
    0.19220912,
    0.77957124,
    0.9376007,
    0.47021437,
    0.21273279,
    0.44522387,
    0.53862786,
    0.54381096,
    0.89376193,
    0.5254472,
    0.5731212,
    0.58058316,
    0.000043988228,
    0.8355457,
    0.22159839,
    0.6682132,
    0.28627306,
    0.09159386,
    0.93933386,
    0.34102887,
    0.09526223,
    0.1523512,
    0.047691405,
    0.12025398,
    0.1217981,
    0.85783273,
    0.98610806,
    0.37535763,
    0.9243451,
    0.5613584,
    0.9226789,
    0.18554682,
    0.85667783,
    0.044798195,
    0.49867773,
    0.08941072,
    0.6454921,
    0.7679074,
    0.49679363,
    0.9965269,
    0.60814446,
    0.76314884,
    0.07011294,
    0.4548043,
    0.39292324,
    0.49805498,
    0.7353751,
    0.56708163,
    0.4820481,
    0.4370818,
    0.94660026,
    0.6827903,
    0.5644218,
    0.65023196,
    0.83253646,
    0.3938331,
    0.005370319,
    0.34483898,
    0.6735571,
    0.99370646,
    0.8293767,
    0.79069537,
    0.96199626,
    0.123281956,
    0.47404873,
    0.5086763,
    0.17728758,
    0.9414072,
    0.722005,
    0.8130592,
    0.87791514,
    0.116568446,
    0.948341,
    0.13795704,
    0.8271918,
    0.29078162,
    0.8612011,
    0.4729346,
    0.6696872,
    0.9158311,
    0.40249246,
    0.5559917,
    0.36345136,
    0.27022368,
    0.27866495,
    0.11653572,
    0.2852062,
    0.2609902,
    0.5924946,
    0.06929535,
    0.95461005,
    0.33820605,
    0.2912743,
    0.81214535,
    0.3116063,
    0.8411977
  ],
  "predictions": [
    1.5432134,
    -0.087210916,
    0.063218646,
    0.3783939,
    0.21848193,
    0.48637176,
    0.3953507,
    0.29700366,
    0.32727954,
    0.24579656,
    0.16219865,
    0.523844,
    0.8018372,
    1.4465623,
    0.41450107,
    0.5143285,
    0.6706123,
    0.99663055,
    1.8959529,
    0.7682903,
    0.20533155,
    1.4199033,
    1.271286,
    1.7270744,
    0.84345216,
    -0.23380886,
    0.5980297,
    0.056763653,
    0.5603302,
    0.90186167,
    0.60081357,
    0.68893546,
    0.059255466,
    -0.22164005,
    -0.09212191,
    0.96697533,
    0.26783276,
    0.2912766,
    1.4315792,
    0.94701934,
    0.20762067,
    1.679347,
    0.6033516,
    0.66134375,
    0.02815406,
    0.93140125,
    -0.28721854,
    0.21047454,
    -0.09708012,
    0.3188412,
    -0.06738975,
    0.4737452,
    -0.3816831,
    0.039087497,
    0.7164945,
    0.3573728,
    1.4741735,
    -0.2820863,
    0.3475468,
    0.1706975,
    0.6725361,
    0.42791677,
    0.70155853,
    0.26811653,
    1.4423393,
    1.2668475,
    0.77134866,
    0.10968937,
    0.44384834,
    0.4429542,
    -0.25787178,
    0.50891906,
    1.3437772,
    0.52735615,
    0.1522964,
    0.88979656,
    0.37916028,
    -0.017556325,
    0.8009833,
    0.94958764,
    -0.36210784,
    0.20196533,
    0.6365145,
    0.92778796,
    0.67631924,
    -0.023322849,
    0.8914791,
    0.7286952,
    0.05748107,
    0.5896783,
    0.357,
    -0.16400036,
    1.1257056,
    0.08533068,
    2.0263255,
    -0.2711557,
    0.72936064,
    0.85754645,
    1.2858622,
    0.22714041
  ],
  "weights_per_layer": [
    [
      -0.08209366,
      -0.16356249,
      0.0965122,
      -0.042950016,
      0.08909316,
      -0.35928214,
      0.08374326,
      0.06519856,
      -0.09317731,
      0.40780693,
      0.06868629,
      0.16893397,
      -0.16761494,
      0.08802503,
      0.061820164,
      0.023162093,
      -0.05154239,
      0.023290476,
      0.27489376,
      0.029108696,
      -0.12168878,
      -0.38687247,
      -0.06305849,
      -0.19550984,
      0.19459757,
      0.06734286,
      0.024723986,
      -0.44885272,
      -0.063490376,
      -0.084461,
      0.17073601,
      0.07064764,
      0.035134174,
      0.15916765,
      -0.25080192,
      -0.049786225,
      -0.16684231,
      0.05110545,
      0.2593239,
      0.2317574,
      0.20234488,
      0.08888061,
      -0.03867976,
      0.030557578,
      0.14555697,
      -0.06073278,
      -0.084179506,
      -0.041880615,
      -0.24417117,
      -0.26315552,
      -0.59096825,
      0.5542409,
      0.12924719,
      -0.07285674,
      -0.0987153,
      0.2102522,
      0.24014539,
      0.12671882,
      -0.04872162,
      0.59006417,
      0.11161024,
      -0.20578788,
      0.080781534,
      -0.25363582,
      -0.11838509,
      0.054783,
      0.3962841,
      0.18601657,
      0.49114564,
      -0.25159106,
      -0.32609653,
      0.24787566,
      0.17847273,
      -0.08885218,
      0.009924046,
      0.04244114,
      0.27831572,
      -0.03860706,
      0.33515748,
      0.04428462,
      -0.13293691,
      0.016125087,
      -0.31508824,
      -0.015090596,
      0.03464757,
      -0.079773895,
      -0.21486689,
      0.04499291,
      0.13303497,
      0.036374588,
      -0.08105912,
      0.15871015,
      -0.08541228,
      0.21858974,
      -0.057306107,
      0.11210941,
      0.17250907,
      0.11362825,
      0.0019895714,
      -0.36456162,
      0.16953923,
      0.11877711,
      0.24449581,
      0.11584142,
      0.06525732,
      -0.041884076,
      0.016021524,
      -0.33192474,
      -0.091226675,
      0.35660398,
      -0.3225863,
      -0.029802362,
      0.053175792,
      0.052375413,
      -0.010781743,
      -0.39903423,
      0.016218336,
      0.101974666,
      0.15196529,
      -0.010359291,
      -0.052715518,
      -0.42794853,
      0.26348764,
      -0.2607221,
      -0.07082382,
      -0.06675021,
      -0.007737583,
      0.17839953,
      -0.37428182,
      0.024124393,
      0.07753821,
      -0.3168509,
      0.10830609,
      -0.09217203,
      -0.30502257,
      0.027540004,
      -0.2649957,
      -0.51690626,
      0.19533598,
      -0.08788059,
      -0.18785343,
      0.084532216,
      0.36519945,
      0.17164746,
      -0.2087734,
      0.029633857,
      -0.07321758,
      -0.09084181,
      0.05252223,
      0.03633307,
      0.12861215,
      -0.3698495,
      -0.44458932,
      0.16950896,
      -0.48007154,
      -0.106038556,
      -0.21653283,
      -0.38391,
      0.17036232,
      0.17423514,
      -0.22229543,
      -0.20197661,
      0.13185102,
      0.028653586,
      -0.15890756,
      -0.05539549,
      -0.043057665,
      -0.23988128,
      -0.088702105,
      -0.23442066,
      0.33520386,
      -0.01675127,
      0.24631125,
      -0.08178123,
      -0.07010089,
      0.0556425,
      -0.025184155,
      0.15746303,
      0.1939351,
      0.14202985,
      0.043569095,
      -0.16671747,
      -0.016981658,
      0.4956406,
      -0.10680927,
      0.1833415,
      0.07118817,
      0.04124866,
      0.33794054,
      0.12575796,
      -0.29862246,
      -0.2195772,
      0.026461052,
      0.04306771,
      0.016383106,
      0.20606217,
      -0.29813403,
      0.09536873,
      -0.068235695,
      -0.45313734,
      -0.06448875,
      0.22665612,
      -0.33122972,
      -0.27128625,
      -0.21927327,
      0.09128578,
      -0.3224671,
      0.16631374,
      -0.03007193,
      -0.035090964,
      0.29606903,
      0.054947756,
      0.6291381,
      -0.053866986,
      0.40139252,
      -0.32045716,
      -0.07695539,
      0.18884468,
      0.20447806,
      0.140196,
      -0.26837927,
      0.018685702,
      -0.11670224,
      -0.009152837,
      0.11881838,
      -0.100431964,
      -0.0016954327,
      0.36711454,
      0.05573433,
      0.04054966,
      -0.36669856,
      0.26199675,
      -0.16157982,
      -0.17585362,
      0.31787568,
      0.16210747,
      -0.0065743625,
      -0.05629358,
      -0.11173947,
      -0.10982494,
      0.11778768,
      -0.13247952,
      0.25711092,
      -0.07008165,
      -0.0322166,
      -0.24795371,
      0.043203026,
      -0.08957918,
      0.3120318,
      0.2509188,
      -0.21695013,
      -0.0931836,
      0.34991547,
      0.24775535,
      -0.011155644,
      0.26575395,
      -0.41784087,
      -0.07918244,
      -0.18004404,
      -0.2934851,
      0.025569238,
      0.14157519,
      0.4385988,
      -0.22317982,
      -0.2562704,
      0.07164424,
      0.28766474,
      0.083759055,
      0.007647728,
      -0.10149996,
      0.1807611,
      0.048032608,
      -0.28671226,
      -0.24335639,
      0.37168455,
      0.2912891,
      -0.16574396,
      -0.12489866,
      -0.082205795,
      -0.46745062,
      0.13422936,
      -0.03786788,
      -0.03067369,
      0.28463626,
      0.15435338,
      0.053215645,
      -0.1831145,
      0.26628986,
      0.10554279,
      -0.19727805,
      0.1569026,
      0.3267966,
      0.16591051,
      0.01816586,
      0.018548008,
      0.0037034904,
      0.039181523,
      0.14643502,
      -0.014676468,
      0.20374766,
      0.061260194,
      0.31983453,
      0.29488626,
      -0.3980738,
      0.019752927,
      0.04406228,
      0.056431852,
      0.13258374,
      -0.017293785,
      0.014616085,
      -0.461873,
      -0.09637212,
      -0.56461704,
      -0.07118369,
      -0.17615888,
      -0.09585951,
      0.158265,
      0.005080081,
      0.17274824,
      0.04031568,
      -0.24637961,
      0.37239805,
      0.07241924,
      0.111945644,
      0.113681555,
      -0.05916272,
      0.009926292,
      -0.30068624,
      0.074735284,
      -0.15164089,
      -0.3888663,
      0.34717464,
      0.3077458,
      0.15634528,
      0.053824436,
      -0.01835788,
      0.16595697,
      -0.074860156,
      0.09327851,
      0.08333203,
      0.11964949,
      0.26896277,
      -0.23778476,
      0.28567308,
      -0.05177927,
      0.30611983,
      -0.39068836,
      0.331428,
      -0.021509126,
      0.12902476,
      0.19927081,
      -0.31560528,
      -0.38819745,
      0.09945533,
      -0.25767735,
      -0.0027906252,
      0.251867,
      0.07026837,
      -0.069476664,
      -0.3062231,
      0.15489665,
      0.05818581,
      -0.18585736,
      -0.18916366,
      0.016593276,
      -0.1412822,
      0.25456876,
      -0.04817682,
      -0.16664904,
      0.09394315,
      0.32487646,
      0.18473026,
      0.27174032,
      0.23039874,
      0.053794168,
      0.14703405,
      0.03807845,
      0.21084845,
      0.071240604,
      0.2763971,
      -0.14553377,
      0.10492687,
      0.14909604,
      0.14541183,
      -0.05722429,
      -0.12100552,
      0.12877904,
      -0.12737963,
      -0.09330596,
      0.07617123,
      0.13381448,
      -0.10307437,
      0.28848085,
      -0.59793925,
      0.00070693437,
      0.21517193,
      0.30294743,
      0.14730646,
      -0.4330384,
      -0.0036789028,
      -0.017323885,
      -0.17805952,
      -0.21228135,
      -0.0052346867,
      -0.014770158,
      0.1334253,
      -0.12739298,
      -0.03841442,
      -0.2636164,
      -0.27176142,
      -0.09102772,
      -0.11949744,
      0.13508393,
      -0.10736823,
      0.047423027,
      0.054461583,
      0.1146822,
      0.046857394,
      -0.06706994,
      0.097779416,
      0.39764923,
      0.011418968,
      -0.047320552,
      -0.011802704,
      0.24902101,
      0.076744534,
      -0.41163963,
      -0.00428378,
      0.0049124463,
      -0.22629142,
      0.021508384,
      0.05269213,
      -0.11835274,
      0.30338532,
      -0.0082549285,
      0.049311273,
      0.267092,
      0.2177484,
      -0.2572006,
      -0.11666483,
      0.17226148,
      0.14383782,
      0.118720405,
      -0.1717658,
      -0.20723683,
      -0.2402135,
      -0.10205847,
      0.07128076,
      -0.18555728,
      -0.0029862458,
      -0.114609554,
      0.00734515,
      -0.16372907,
      0.17582878,
      0.06074582,
      0.047603376,
      -0.3543785,
      -0.026039386,
      -0.467152,
      0.08369193,
      -0.010657083,
      -0.13990368,
      0.30365098,
      0.07859652,
      0.074779324,
      -0.08555597,
      -0.18431814,
      -0.034482308,
      -0.12314966,
      -0.70906436,
      0.09674754,
      -0.26386744,
      -0.22200143,
      0.06402592,
      0.123895094,
      -0.3091849,
      -0.13543463,
      0.113416,
      0.16418278,
      0.093717664,
      -0.16759884,
      0.24496143,
      -0.21113959,
      0.113257065,
      -0.1056761,
      -0.035768136,
      -0.24532649,
      -0.019948546,
      -0.11836277,
      -0.20702922,
      -0.23207946,
      -0.034899235,
      0.31725106,
      0.31091085,
      -0.017772373,
      -0.13743585,
      -0.06986529,
      0.13401593,
      -0.153933,
      -0.048964962,
      -0.28971314,
      -0.12573105,
      -0.26792404,
      0.2292244,
      0.051751066,
      -0.05826436,
      -0.08050114,
      0.07170023,
      0.29031414,
      -0.013493301,
      0.30835867,
      -0.19092256,
      0.03946549,
      0.077784866,
      0.031374015,
      0.04578864,
      0.057253674,
      0.10741113,
      -0.03633164,
      -0.27158338,
      -0.0025228434,
      0.32420087,
      0.4648227,
      0.1423701,
      -0.19227387,
      -0.13032866,
      0.009382799,
      -0.05514916,
      0.07433106,
      0.022652198,
      -0.035710327,
      -0.1462695,
      -0.0988917,
      0.20205796,
      -0.034358013,
      0.010781959,
      -0.02440019,
      0.34672987,
      -0.28017175,
      -0.064700305,
      -0.2164887,
      -0.09986752,
      -0.18865415,
      -0.29039744,
      -0.2907436,
      0.17850575,
      0.13173549,
      0.39641425,
      0.09085226,
      -0.010320734,
      -0.01876384,
      -0.2138221,
      -0.16050339,
      0.019755833,
      -0.2896759,
      0.05345293,
      0.23684289,
      -0.071138605,
      0.18175015,
      0.278143,
      0.063086905,
      0.11435408,
      -0.08027135,
      -0.020649828,
      0.1769864,
      -0.02592314,
      0.36162695,
      -0.08925637,
      0.13856006,
      0.0035402388,
      0.13726799,
      0.14545782,
      0.26900476,
      -0.052919872,
      -0.028517563,
      -0.27090237,
      -0.111999676,
      -0.09863987,
      -0.08536044,
      0.06440697,
      -0.04377552,
      0.10390934,
      0.04155285,
      -0.025275394,
      -0.29631793,
      -0.09315886,
      -0.043754548,
      -0.109227225,
      0.5972718,
      0.017030116,
      0.11049239,
      0.36389786,
      0.27702504,
      0.14818418,
      0.11795066,
      -0.25363672,
      -0.016794719,
      0.045499094,
      -0.31692967,
      -0.064496405,
      0.28174525,
      0.24242306,
      0.24913123,
      -0.28146476,
      0.15300211,
      -0.15230593,
      0.3878541,
      -0.23658228,
      -0.12839676,
      -0.27556604,
      -0.058690734,
      -0.18969978,
      0.04783282,
      -0.36502367,
      -0.29446357,
      0.5041398,
      -0.07876306,
      0.10654083,
      0.057369955,
      0.53199327,
      -0.17268087,
      0.08821795,
      0.021589354,
      0.18849477,
      -0.04983177,
      -0.41066706,
      -0.32973468,
      -0.030909598,
      -0.41608185,
      -0.059926394,
      -0.101162024,
      -0.12015335,
      0.46372044,
      0.22636315,
      -0.35666794,
      0.104084544,
      -0.28207147,
      0.03963515,
      0.06630157,
      0.031716187,
      0.16911557,
      -0.10882929,
      -0.060686555,
      0.10093785,
      -0.18707062,
      -0.1474199,
      0.13040082,
      -0.11073689,
      0.122655466,
      -0.030874964,
      -0.14000809,
      0.041933306,
      0.3978455,
      0.0125032365,
      -0.00932264,
      -0.3056231,
      -0.13429078,
      0.011867559,
      -0.07359778,
      0.32151777,
      -0.25363445,
      -0.010697151,
      0.13889033,
      -0.44249874,
      -0.2558826,
      -0.109929755,
      0.11572377,
      -0.07386945,
      -0.36821964,
      0.29799634,
      -0.037972502,
      -0.029813636,
      0.12774333,
      0.19603497,
      0.1659713,
      0.018953344,
      -0.38421857,
      -0.20961103,
      0.11043244,
      0.03614715,
      0.57384104,
      0.28938034,
      -0.108771965,
      0.35961878,
      0.38693005,
      0.12324862,
      -0.104938276,
      -0.23138149,
      0.41280982,
      0.013012195,
      -0.2754584,
      0.016667569,
      -0.15669969,
      0.24091724,
      -0.24042375,
      -0.139234,
      -0.11746287,
      0.2805199,
      -0.3015892,
      -0.37705973,
      -0.15831736,
      0.10131284,
      -0.23709193,
      0.24802956,
      -0.14466336,
      -0.24881876,
      0.0147715695,
      -0.021100244,
      0.24768695,
      -0.14108722,
      0.0839472,
      0.019500487,
      -0.3095672,
      0.02930247,
      -0.26770455,
      -0.06486026,
      0.2645083,
      0.060780194,
      -0.09999128,
      0.07340332,
      -0.14413261,
      -0.07184159,
      -0.20953146,
      0.1739947,
      0.047093675,
      -0.021231296,
      0.025150929,
      -0.35063225,
      -0.12858455,
      0.330073,
      0.047400884,
      0.13079822,
      -0.002689227,
      0.12021233,
      -0.24003938,
      -0.2514129,
      -0.08373316,
      0.018672884,
      0.027415765,
      -0.14231184,
      0.16791752,
      -0.20107988,
      0.17202806,
      0.11671981,
      0.053468924,
      -0.09612246,
      -0.38414547,
      0.038613237,
      -0.28130078,
      0.033569362,
      0.38835412,
      -0.026348125,
      -0.095097065,
      0.05717675,
      0.005608843,
      0.23090117,
      0.06386645,
      -0.13273233,
      -0.06568611,
      0.20512994,
      -0.035149716,
      0.092044726,
      -0.19594793,
      0.15571809,
      -0.0004576582,
      -0.1750078,
      -0.08790182,
      -0.07295425,
      -0.3295284,
      0.115702674,
      -0.016071638,
      -0.071970895,
      -0.114522606,
      0.28283986,
      -0.3451787,
      0.22001418,
      0.256233,
      -0.2815445,
      -0.11522782,
      -0.14462592,
      0.091501415,
      -0.32355404,
      0.19124573,
      -0.00017795316,
      -0.05442487,
      0.24026877,
      0.18545315,
      -0.1472851,
      -0.14998445,
      0.1401783,
      -0.06332415,
      -0.056918234,
      -0.21530467,
      -0.1814115,
      0.25089252,
      0.057017297,
      0.27702004,
      0.15657064,
      -0.35545945,
      0.10685708,
      0.438141,
      0.4221088,
      0.37193358,
      0.27180994,
      -0.06251535,
      0.2720805,
      -0.04328544,
      0.00922926,
      -0.06433843,
      0.049855873,
      0.16091636,
      0.0040296824,
      0.064609095,
      0.31804457,
      -0.4312443,
      -0.46387184,
      -0.1230261,
      -0.2778008,
      0.15553468,
      0.1260758,
      -0.2902918,
      -0.0047151307,
      0.028959975,
      0.16867127,
      -0.42854506,
      0.050804608,
      -0.055401687,
      0.29572636,
      0.19754851,
      0.09240666,
      -0.0011457307,
      0.5194758,
      -0.044304915,
      0.21140774,
      0.23582396,
      -0.025058826,
      0.07692891,
      -0.1865643,
      -0.3024276,
      -0.18973391,
      -0.026548896,
      0.1558769,
      -0.14509287,
      0.38216713,
      0.1279907,
      0.039468437,
      0.0905821,
      -0.07930304,
      0.1255528,
      -0.29589063,
      0.07439798,
      -0.2671509,
      0.043120846,
      -0.18743105,
      0.13937159,
      -0.15262532,
      -0.035071813,
      -0.204294,
      0.087001726,
      -0.07678498,
      -0.015743539,
      0.040712565,
      0.23796979,
      0.04792284,
      -0.08861357,
      -0.28793928,
      -0.26080102,
      0.004229859,
      -0.32664642,
      -0.026959348,
      -0.06551662,
      -0.39213955,
      0.28521782,
      -0.102844626,
      -0.13836262,
      -0.035011534,
      -0.0629018,
      -0.12913567,
      0.19604659,
      -0.15012713,
      0.095783114,
      0.16358477,
      0.25273633,
      0.29975364,
      -0.4875034,
      -0.15291533,
      -0.17062342,
      0.08666008,
      -0.15637939,
      -0.20749393,
      0.1992197,
      0.25836962,
      0.2621655,
      -0.27057713,
      0.20301369,
      -0.26256293,
      0.042334214,
      -0.24631356,
      0.17558666,
      -0.42387694,
      0.1044888,
      0.17427266,
      0.44122297,
      -0.2818721,
      -0.08167948,
      -0.15099049,
      0.093699634,
      0.22005795,
      0.12515463,
      -0.23614861,
      -0.09989567,
      -0.15209678,
      -0.03265599,
      0.19230711,
      -0.028042093,
      0.21177831,
      0.09288967,
      0.467573,
      0.22199246,
      -0.5129469,
      -0.08213684,
      0.047847424,
      0.10214019,
      -0.06742924,
      -0.17670567,
      -0.35801977,
      0.03749256,
      -0.19282347,
      0.19293475,
      0.28001285,
      0.13976488,
      0.34355146,
      -0.0838857,
      -0.065846,
      0.11493716,
      0.06881145,
      0.24080706,
      -0.3327276,
      0.18528992,
      -0.22971639,
      0.124688454,
      -0.1564773,
      -0.06191486,
      -0.0790264,
      0.04263661,
      -0.083350465,
      0.36484855,
      0.36599556,
      -0.06169249,
      0.16577718,
      -0.0015565441,
      0.21245842,
      -0.1509527,
      -0.28976548,
      -0.24907863,
      0.10061878,
      0.4835521,
      0.10551092,
      -0.22848248,
      0.28575915,
      -0.034143887,
      -0.30810428,
      0.11057352,
      -0.06709736,
      0.24198048,
      0.05357313,
      -0.2691604,
      -0.16328886,
      0.26996785,
      0.15724511,
      -0.08880879,
      -0.17989272,
      0.0878489,
      0.0766407,
      -0.42772734,
      -0.35532546,
      0.26654413,
      -0.47092003,
      0.33758855,
      -0.0658773,
      -0.04212099,
      0.117678806,
      0.08323102,
      -0.081798635,
      -0.06552082,
      -0.18373913,
      0.23920393,
      -0.07682227,
      0.123462185,
      -0.1116605,
      -0.20360303,
      -0.022872988,
      -0.29838377,
      -0.1582885,
      0.10334474,
      -0.3428011,
      0.31341103,
      -0.012012398,
      0.03925612,
      -0.2713194,
      -0.016662061,
      -0.13971733,
      0.09515333,
      0.00046986065,
      -0.03743985,
      -0.037052367,
      -0.07094875,
      0.16900635,
      0.29711854,
      -0.25450003,
      0.32708293,
      0.1287691,
      -0.055855684,
      0.07381119,
      -0.11384868,
      -0.2095271,
      -0.031997167,
      -0.46377215,
      -0.12361175,
      0.17162947,
      0.059114754,
      -0.2739621,
      -0.1248615,
      -0.067687765,
      -0.14413065,
      -0.16418782,
      0.19150537,
      -0.46136147,
      -0.091102265,
      -0.00781757,
      -0.04080634,
      0.49472618,
      -0.08488986,
      0.3074103,
      0.11115668,
      -0.20300257,
      0.04206164,
      -0.053322732,
      -0.08831126,
      0.087925285,
      -0.008867231,
      -0.32117394,
      0.16796212,
      0.03038758,
      -0.093965024,
      -0.15701029,
      0.089479074,
      0.06705168,
      0.06412428,
      0.15112093,
      0.23397395,
      0.019950656,
      0.12430452,
      -0.07261942,
      -0.21413225,
      0.04686202,
      0.0066936836,
      0.048958372,
      0.13089208,
      0.11448988,
      0.5009879,
      0.031145945,
      0.050582197,
      0.37107682,
      -0.24067618,
      -0.16865063,
      0.023921173,
      -0.18305928,
      0.039070524,
      -0.1244431,
      -0.18059953,
      -0.0037631942,
      -0.06007562,
      0.20841998,
      0.057027392,
      0.2536236,
      0.108777255,
      0.038423486,
      0.14691168,
      -0.5219024,
      -0.3383246,
      0.12588963,
      -0.11615653,
      0.2981371,
      -0.26740468,
      0.0038581844,
      0.11352046,
      -0.018388221,
      -0.4483004,
      0.04541793,
      -0.021374665,
      0.41394582,
      0.09834315,
      0.27976736,
      0.44345886,
      0.20752059,
      0.24874409,
      -0.14106523,
      0.21733655,
      -0.14587325,
      -0.059445504,
      -0.11533597,
      0.22348021,
      -0.23304366,
      0.401313,
      -0.18002242,
      -0.029090252,
      0.2841184,
      0.1330704,
      0.070849225,
      0.17257282,
      -0.12790261,
      -0.23552364,
      -0.09196149,
      0.38070184,
      -0.33616102,
      -0.22905487,
      -0.030576862,
      0.06024746,
      -0.10748118,
      0.24975044,
      0.44481996,
      -0.02374571,
      0.260813,
      0.010076074,
      0.123611115,
      0.040733274,
      -0.17801356,
      0.21497464,
      -0.06860256,
      -0.020601835,
      -0.21104676,
      0.0660063,
      -0.29346257,
      -0.27926287,
      -0.09018527,
      0.03718155,
      0.096800335,
      -0.25340283,
      0.04950493,
      0.22409979,
      0.14690909,
      -0.3331593,
      -0.12593678,
      -0.22292362,
      -0.30485892,
      0.084745705,
      -0.17287141,
      -0.21134636,
      -0.035075136,
      -0.2502849,
      0.23534814,
      -0.010451288,
      -0.33674175,
      -0.3328562,
      0.06764814,
      -0.09851186,
      -0.19557118,
      0.38380623,
      0.37577197,
      -0.19744961,
      -0.48701757,
      -0.07120123,
      -0.18419085,
      0.41236174,
      0.27348393,
      -0.059553064,
      0.19632083,
      0.10362986,
      -0.08525221,
      0.14072435,
      0.03400635,
      0.10461878,
      -0.045811087,
      -0.119920254,
      0.10310352,
      -0.048992295,
      0.2463984,
      0.21314862,
      0.3486061,
      0.1444515,
      -0.1105877,
      -0.23077363,
      -0.06262476,
      0.071072906,
      0.18053493,
      -0.06576579,
      0.076369435,
      -0.027740352,
      0.03284234,
      0.10136485,
      0.044631667,
      -0.22713101,
      -0.13333206,
      0.050881505,
      0.05048076,
      0.25700265,
      0.15788051,
      -0.035582513,
      -0.24036515,
      0.02836129,
      -0.24842,
      -0.22614232,
      0.018636892,
      -0.028992109,
      0.10764349,
      -0.30450764,
      0.24821053,
      0.22146305,
      -0.3279319,
      0.114881426,
      0.3929141,
      0.024332795,
      -0.2109876,
      0.08458904,
      0.18603289,
      0.03876605,
      0.22361477,
      -0.02035034,
      -0.16907114,
      0.17290866,
      0.14886792,
      0.16955286,
      -0.20187804,
      0.20672941,
      0.15711725,
      0.09010588,
      -0.10972634,
      0.18593596,
      -0.14645346,
      -0.027911235,
      -0.062222928,
      0.14896655,
      0.0007789102,
      -0.19829303,
      0.21961087,
      0.2356402,
      -0.033355013,
      0.10790701,
      0.17920133,
      -0.088061124,
      -0.025107522,
      0.32576323,
      -0.05351331,
      0.08300285,
      -0.49447125,
      0.010811285,
      -0.3585741,
      -0.16228448,
      0.046006575,
      -0.16086501,
      0.04329801,
      -0.45829937,
      -0.13885729,
      0.15659457,
      -0.20883343,
      0.23914948,
      0.028981488,
      -0.020620445,
      -0.001733594,
      -0.0782182,
      -0.04866821,
      0.11088465,
      -0.24870232,
      0.17583877,
      0.15269782,
      0.13295606,
      0.26162326,
      0.15177992,
      -0.40985566,
      -0.1642334,
      0.19308174,
      -0.20251286,
      -0.16659886,
      0.15203255,
      -0.20065981,
      0.16228382,
      0.054565273,
      -0.15232155,
      -0.24326439
    ],
    [
      -0.2472714,
      -0.18263988,
      0.023256484,
      -0.13092652,
      0.035934106,
      0.029570678,
      0.3375827,
      0.2241098,
      0.135317,
      0.30607477,
      -0.19152942,
      0.0056938287,
      -0.31331253,
      -0.21673211,
      -0.043963004,
      -0.009518052,
      -0.034353245,
      0.0031105839,
      0.065546796,
      0.27927265,
      0.20474099,
      -0.069492534,
      -0.089926764,
      -0.26604164,
      0.09385808,
      0.07707526,
      -0.2785811,
      -0.036545023,
      0.05030104,
      -0.25210518,
      0.012412017,
      -0.1711113,
      0.22823119,
      0.03970989,
      0.3117509,
      -0.20795433,
      0.04639364,
      0.09949363,
      -0.06530698,
      0.17542747,
      -0.26825562,
      -0.1359163,
      -0.013446614,
      0.15491825,
      0.112468794,
      0.26009876,
      -0.117827654,
      0.5045098,
      0.27242896,
      -0.13180996,
      0.30129457,
      0.058507085,
      0.23156159,
      -0.37925345,
      -0.084389895,
      -0.05141908,
      -0.07743249,
      0.3362357,
      -0.07985129,
      0.18263033,
      0.6242149,
      -0.22950596,
      -0.14618315,
      -0.020081136,
      0.12110856,
      -0.05883802,
      0.19744241,
      -0.12497059,
      0.14754757,
      0.25205487,
      -0.06326943,
      0.000029436342,
      -0.33040679,
      0.1472346,
      0.096332245,
      0.19034925,
      0.09211026,
      -0.20511997,
      0.51647925,
      0.018348409,
      -0.021294005,
      0.33751526,
      -0.39344305,
      0.25303,
      -0.04847256,
      0.02446568,
      -0.041562665,
      -0.09969148,
      0.23320995,
      -0.28950745,
      -0.17532524,
      -0.57312363,
      0.22765067,
      -0.0038916138,
      0.20555829,
      0.15437081,
      0.029518075,
      -0.08202529,
      -0.19528207,
      0.10983522,
      0.053323343,
      0.09139289,
      0.07272317,
      -0.26436853,
      0.23164642,
      -0.061372552,
      0.18182972,
      -0.27795947,
      -0.025941081,
      0.22295523,
      -0.007907944,
      -0.13819882,
      -0.16492316,
      0.0734474,
      -0.35271528,
      0.20328268,
      0.09724687,
      -0.111971304,
      -0.0027571432,
      0.13624227,
      0.13593969,
      -0.26384223,
      0.028223645,
      0.08120026,
      0.2607905,
      -0.29919916,
      0.06773761,
      0.27213567
    ]
  ],
  "biases_per_layer": [
    [
      0.006855185,
      0.008889287,
      0.0051583047,
      0.0009293244,
      -0.007358594,
      0.0034033593,
      0.0041833515,
      0.005583891,
      0.009023363,
      -0.00835246,
      0.008707837,
      0.0048798905,
      -0.007988677,
      -0.009411825,
      -0.00016215863,
      -0.0015903143,
      -0.009281796,
      -0.0050295535,
      -0.009448852,
      0.0078489585,
      0.009161599,
      0.008650018,
      -0.0075996043,
      -0.0080244765,
      -0.0021989837,
      0.00922662,
      0.008890698,
      -0.009741997,
      -0.0069893124,
      0.007885886,
      -0.0009999524,
      -0.010121395,
      -0.0036377837,
      -0.0035185632,
      -0.004769671,
      -0.0015143366,
      -0.0046955217,
      -0.00873748,
      0.007039918,
      0.0017350984,
      -0.007538504,
      -0.008780651,
      -0.0026445882,
      -0.008818482,
      -0.00021694595,
      0.007921838,
      -0.0002202969,
      -0.00030700257,
      0.004324954,
      -0.005174708,
      0.008946531,
      -0.008525703,
      -0.007813132,
      -0.005203385,
      -0.005144677,
      0.00008548866,
      0.009342093,
      -0.009312787,
      0.0011561892,
      -0.006927078,
      -0.008415037,
      -0.00866179,
      0.00031170296,
      -0.0082335025,
      -0.0072607114,
      0.0014290754,
      0.009631889,
      -0.0003871494,
      -0.007902118,
      0.009094791,
      0.00084413914,
      -0.005426434,
      -0.0000691344,
      -0.0058639734,
      0.009951878,
      -0.007984523,
      -0.0012524382,
      0.003406881,
      -0.0053572427,
      0.0021159765,
      0.010461365,
      -0.008429922,
      -0.007991493,
      -0.0071839243,
      0.008070294,
      0.004978079,
      -0.0039235754,
      -0.007581775,
      -0.007239241,
      0.0074088406,
      -0.0022951835,
      -0.0011324659,
      -0.004656692,
      0.0004775537,
      -0.006042784,
      -0.0042942055,
      0.009365588,
      -0.00087570073,
      0.008608565,
      0.0010866222,
      0.004964503,
      -0.007845482,
      -0.0005233432,
      0.0070563788,
      -0.004623708,
      0.008040655,
      -0.009078423,
      -0.005416438,
      0.006938788,
      -0.007821009,
      -0.001038783,
      -0.004326443,
      0.008239582,
      0.005824193,
      0.00046125776,
      0.006605924,
      0.0090400865,
      0.0010100568,
      -0.0047205533,
      -0.00009024097,
      0.008318957,
      0.00027935975,
      -0.0058477493,
      -0.006898395,
      -0.0018091472,
      -0.004302424,
      0.0035127536,
      0.0014669285
    ],
    [
      -0.0039827824
    ]
  ],
  "weights_x_biases_per_layer": [
    [
      0.8988228,
      -0.7483348,
      0.47553033,
      0.54722136,
      0.15497462,
      0.16494569,
      -0.7093818,
      -0.9206003,
      -0.30638364,
      -0.39078125,
      -0.8891734,
      0.1005744,
      0.65897167,
      0.61653596,
      -0.13253932,
      1.5428869,
      -0.07714086,
      -0.107262716,
      0.56606776,
      -0.71100503,
      -0.10275879,
      1.1297885,
      -0.4889933,
      1.436482,
      1.1094096,
      1.1321476,
      -1.130616,
      -0.14610487,
      0.28174007,
      -0.4066614,
      0.31928492,
      -0.56102574,
      -0.5877946,
      -1.0678579,
      0.23332123,
      0.025532931,
      0.7226841,
      -0.33168784,
      -0.5851124,
      0.17555086,
      0.16937643,
      0.78707486,
      -0.28554484,
      0.6784398,
      -0.041860405,
      0.72622114,
      -0.5502122,
      0.79677784,
      0.46878645,
      0.6468047,
      0.064389735,
      0.8244863,
      -0.31608126,
      0.6813689,
      -0.64105964,
      -0.674627,
      -0.46778342,
      -0.25368175,
      0.027320094,
      -1.2103301,
      0.32378402,
      -0.2540477,
      1.1652919,
      -0.07871276,
      0.12604487,
      -0.23580448,
      -0.12216691,
      0.048083924,
      0.17158307,
      -0.3204033,
      -0.23568529,
      1.0372711,
      0.26154232,
      0.22424048,
      0.34013546,
      0.15133974,
      0.4915665,
      0.3189663,
      0.18883099,
      -0.7309292,
      -0.0018352633,
      -0.8499636,
      0.26159632,
      -0.86268264,
      0.73445696,
      -1.1684883,
      -0.9449239,
      -0.9209698,
      0.3156648,
      0.45459554,
      -2.2830417,
      -1.4135331,
      0.91133976,
      0.5971508,
      -0.44971612,
      -0.37303162,
      -1.5864689,
      -0.008588064,
      -0.8802512,
      -0.15717582,
      -0.05902783,
      -0.03721084,
      0.54710084,
      -0.46175164,
      -0.5886654,
      0.030618437,
      1.0124313,
      0.41253605,
      0.72322595,
      0.009180999,
      0.663399,
      0.029706173,
      0.15854673,
      0.04581807,
      0.253264,
      -0.41369593,
      0.18362445,
      -0.35337144,
      0.63724625,
      0.22186565,
      -0.4825578,
      0.00007303804,
      0.42070603,
      -0.08522928,
      -0.27034718,
      -0.3990521,
      0.1683435,
      0.16833556,
      0.46633857,
      0.020611797,
      0.3608318,
      1.0315324,
      0.24189064,
      0.057574354,
      0.2389803,
      0.010971054,
      0.25548458,
      0.057116892,
      0.791427,
      -0.088136196,
      -0.080192655,
      -0.26838586,
      0.6399889,
      -0.34827775,
      -0.3578889,
      -0.36779758,
      0.23067008,
      -0.4752194,
      -0.49092555,
      -0.06329076,
      -0.25399783,
      0.011347273,
      -0.039122988,
      -0.0004309304,
      -0.1126334,
      0.01788041,
      0.8633425,
      0.16924487,
      -0.53500384,
      0.10812056,
      -0.4471,
      -0.04826241,
      -0.5276084,
      0.27742854,
      0.15287018,
      -0.10102378,
      0.024478357,
      0.44169408,
      -0.1476311,
      0.80958027,
      0.48024118,
      -0.33227983,
      0.20082265,
      0.27995148,
      0.15882732,
      0.30892268,
      -0.2625023,
      0.14588347,
      -0.54108286,
      0.5065116,
      0.37692684,
      1.0315381,
      0.280755,
      -0.02736643,
      -0.49349257,
      0.67812365,
      1.0831182,
      -0.13559003,
      -0.20380995,
      0.24042639,
      0.37431496,
      0.26948604,
      -0.19406225,
      0.33010468,
      0.06390384,
      -0.21318336,
      0.35948166,
      -0.118607745,
      -0.48917466,
      -1.0212966,
      0.63208836,
      -0.37576887,
      -0.5195632,
      0.77340394,
      0.11252537,
      -0.9817125,
      0.25123376,
      0.28244716,
      -0.45334437,
      0.49463663,
      -0.5454421,
      0.5202855,
      -0.83590776,
      -0.7082379,
      0.9503154,
      -0.20432498,
      0.21809626,
      -0.08804471,
      0.013368685,
      0.13592999,
      0.05295495,
      -0.76850384,
      0.18773937,
      -0.5703301,
      0.50845635,
      -0.955295,
      -0.77126735,
      1.2155122,
      -1.2580293,
      -0.3285681,
      -0.13057724,
      0.2080164,
      0.9362151,
      0.16087782,
      -0.48938394,
      -0.78973454,
      0.03597699,
      -0.7568325,
      -0.4759804,
      -0.32724395,
      0.11303146,
      0.09009415,
      -1.9191108,
      0.012238383,
      -0.5686377,
      -0.279403,
      0.24745837,
      1.5974106,
      1.3160464,
      0.9947304,
      0.07897406,
      0.5260406,
      -0.4017379,
      0.096678816,
      0.29488155,
      0.93557143,
      -1.1502224,
      -0.10131781,
      0.9405375,
      0.6666782,
      -0.36151925,
      0.20162606,
      0.7557671,
      -1.0297775,
      -0.093731485,
      0.4422256,
      1.3860661,
      -1.5456197,
      0.4310034,
      -0.7508763,
      0.05735375,
      -0.17106324,
      -0.52216023,
      -0.054008476,
      -0.5215254,
      0.039200537,
      0.2095832,
      0.58534324,
      0.854118,
      0.80017954,
      -1.6683605,
      -0.7068331,
      0.13240862,
      -0.46388173,
      -0.08169515,
      0.41626015,
      -0.17099091,
      0.16814785,
      -0.41093156,
      -1.6364514,
      -0.50930387,
      -0.20354483,
      1.0261154,
      -0.7481855,
      -0.05332036,
      0.5325905,
      -0.6911658,
      0.33782625,
      0.14241605,
      1.877288,
      -0.49624977,
      0.3022345,
      -0.012608321,
      -0.75776494,
      -0.6056879,
      0.19048749,
      0.5546502,
      -0.34447497,
      0.7679024,
      -0.3323381,
      0.0947982,
      -0.52713096,
      0.83025426,
      0.3330014,
      -0.01288682,
      0.46285075,
      0.5789502,
      -0.14287291,
      1.0435683,
      0.8376006,
      -0.47586256,
      -0.021734405,
      -0.89536214,
      1.4329342,
      -0.55055124,
      0.5876482,
      0.1862922,
      -0.4076932,
      1.0002012,
      0.12457538,
      0.47735626,
      0.41796902,
      0.13588971,
      -0.89657027,
      0.82201433,
      0.9392374,
      0.8757967,
      -0.09053971,
      0.1348347,
      -0.30851233,
      -0.14646813,
      0.19782205,
      0.79998845,
      0.06257117,
      0.09983765,
      0.051498517,
      0.45595118,
      -0.3595135,
      -0.6367949,
      -0.2962851,
      -0.29741797,
      0.3412992,
      0.4177966,
      -0.14180924,
      0.268371,
      -0.75857884,
      0.41108063,
      0.20530859,
      -0.23684706,
      -0.732819,
      -0.37838086,
      -0.24080984,
      -0.74292976,
      0.97631055,
      0.001561541,
      -0.67141867,
      -0.57710385,
      1.2110636,
      -0.08744407,
      0.6655333,
      0.08229087,
      -0.016202569,
      0.77787006,
      -0.33452466,
      0.26687938,
      -0.16821373,
      0.028336281,
      -0.069782734,
      -0.25285032,
      -0.50919,
      0.36464173,
      0.41756007,
      -0.2842056,
      -0.30436596,
      -0.2908543,
      0.15155496,
      0.30821437,
      0.20016116,
      -0.051345248,
      0.53988177,
      0.5396532,
      0.01353577,
      -0.34937865,
      0.08127504,
      -0.04007916,
      -0.23565459,
      -0.72735953,
      -0.07294356,
      -0.4401576,
      -1.4207096,
      0.56849295,
      0.19824375,
      -0.20349246,
      -0.2546077,
      0.5221054,
      -0.45752952,
      0.2030363,
      -0.10997246,
      0.14844784,
      0.5313085,
      -0.3418952,
      0.8656539,
      -0.2306547,
      0.4971179,
      -0.26881713,
      -0.9878701,
      -0.34369576,
      0.4298173,
      0.21079476,
      0.0053195534,
      0.3786042,
      0.49473736,
      -0.29883316,
      -0.50877684,
      -0.27862167,
      -0.8816469,
      0.416003,
      -0.060109265,
      -0.5541393,
      0.61234814,
      -0.08608712,
      -0.44351098,
      -0.6678923,
      0.39178932,
      -0.7828994,
      -0.09193846,
      -1.0126446,
      0.40409884,
      0.72890115,
      0.13818882,
      0.21877132,
      0.18658538,
      -0.21961193,
      0.025737675,
      -0.12539011,
      0.10712368,
      -0.24180067,
      -0.4743932,
      0.30677667,
      -0.021802774,
      -0.5521726,
      -0.6255238,
      -0.4328894,
      0.10858276,
      0.29476786,
      0.601721,
      0.2165039,
      -0.7773588,
      0.7829282,
      0.6459823,
      -0.33874553,
      0.29161182,
      -0.108525194,
      -0.8809124,
      0.56260914,
      -0.08895624,
      0.8118423,
      -0.82135224,
      0.26132554,
      -0.38180402,
      -0.17369364,
      -0.4664461,
      -0.41219446,
      0.33126658,
      -0.097710624,
      0.6217181,
      -0.28154477,
      0.20328724,
      0.04115104,
      0.9207241,
      -0.53042763,
      -0.2766803,
      0.21161202,
      0.80157334,
      0.03444592,
      -0.12723598,
      0.11988643,
      0.8301726,
      0.016490864,
      -0.15125419,
      0.6359426,
      0.8092986,
      0.37942386,
      0.06951666,
      0.35552043,
      -0.18922049,
      0.21161222,
      -0.57765955,
      0.72040683,
      -0.08994219,
      -0.65891176,
      -2.1068618,
      1.1865187,
      -0.5272492,
      -0.8094244,
      2.3335319,
      -2.6177194,
      0.68772584,
      -0.40292162,
      -1.4114573,
      1.6352895,
      -1.8267062,
      0.47832313,
      -1.7157102,
      -0.40653893,
      1.2240049,
      -1.120337,
      -0.23517953,
      -1.2408903,
      -1.2676693,
      -0.6199969,
      -0.6860823,
      3.7955158,
      -2.0332367,
      2.0305316,
      2.0380223,
      -0.50657004,
      -1.3946737,
      0.41727927,
      -2.151043,
      0.43294498,
      -0.1824561,
      0.48205897,
      -0.9339871,
      0.87657577,
      0.13215718,
      0.027121441,
      -0.6929837,
      -1.1371903,
      0.6360293,
      -0.3301036,
      -0.6737586,
      1.6078638,
      -0.7051035,
      0.63372815,
      0.2972602,
      -2.1095262,
      0.34319526,
      -0.756398,
      0.10713717,
      1.8585709,
      -0.6553878,
      -0.59451485,
      0.024994973,
      -0.7866061,
      -0.718597,
      0.7545851,
      0.90724576,
      -3.3418422,
      -0.18887563,
      1.2490311,
      -1.0055212,
      0.5925486,
      1.854618,
      -0.47504553,
      0.9451679,
      -2.141703,
      1.889273,
      -0.5270668,
      1.0042855,
      0.23152456,
      1.2564764,
      0.71046257,
      -0.09190845,
      0.5534065,
      -0.3654979,
      1.7293146,
      0.05194228,
      -1.5456486,
      0.04080792,
      1.7605001,
      0.24673593,
      0.23247431,
      -0.89259404,
      -0.18605143,
      -1.5881727,
      -1.2905558,
      -2.451001,
      1.2250321,
      0.74977654,
      -1.8831263,
      -2.4579306,
      0.3225358,
      -0.16809583,
      0.20837727,
      -0.5081249,
      1.8331385,
      1.4278454,
      -0.92037344,
      -0.843578,
      -0.907817,
      0.8083199,
      0.2748133,
      0.98107487,
      0.056619123,
      -0.33208093,
      1.3946546,
      -0.057468586,
      -0.12653145,
      -0.1273123,
      -0.7053995,
      -0.38190114,
      -0.36102673,
      0.4078756,
      0.0024116137,
      0.5796564,
      1.2620063,
      -0.6649882,
      -0.8066787,
      -0.4804756,
      -0.12238042,
      0.16853002,
      -0.38693243,
      0.30368915,
      -0.78465956,
      0.03766106,
      -0.023233382,
      0.2382471,
      1.3402698,
      1.3130063,
      -1.2816159,
      1.1167803,
      0.27127784,
      0.4865854,
      -0.023122087,
      -0.33801448,
      -0.1327701,
      0.7717725,
      0.41309536,
      -0.40996408,
      0.24561372,
      -0.26528385,
      -0.6503661,
      0.07351929,
      0.22870897,
      -0.5041871,
      1.8370087,
      -0.29456183,
      -1.8767362,
      -0.5424105,
      -0.24205728,
      0.4067318,
      0.8835545,
      -0.77664953,
      -0.22765519,
      -0.4594001,
      -0.6034428,
      0.73450303,
      -0.0051296535,
      -0.7225715,
      0.79886574,
      0.75217193,
      -0.285047,
      0.43779552,
      -1.71961,
      0.41549695,
      0.20581473,
      0.26537597,
      -1.1361967,
      -0.5196177,
      0.114832126,
      0.054866552,
      0.65886104,
      -0.5191838,
      -0.5709991,
      -1.3744369,
      -1.5141511,
      -1.2594308,
      1.0746409,
      -1.1379709,
      1.0298665,
      0.37564087,
      -0.043429255,
      -0.2174245,
      0.03520915,
      2.6040237,
      0.27898222,
      -0.35342473,
      -0.82809883,
      0.74585795,
      0.27431208,
      0.9474575,
      -1.6161005,
      0.2846754,
      -1.9725577,
      0.6010698,
      0.46854284,
      0.50483096,
      0.17895164,
      1.0671628,
      -0.05233456,
      -1.0778131,
      0.6018328,
      -0.74055713,
      -0.13563816,
      0.8469758,
      -0.10061613,
      0.44141877,
      -0.536104,
      -0.548788,
      -0.01176461,
      -1.1298455,
      -0.2434252,
      -0.33667764,
      0.3878017,
      0.64435095,
      -0.012889545,
      -0.6545081,
      -0.48159093,
      -0.7309212,
      -0.8873165,
      -0.07575554,
      2.0483248,
      -1.3321334,
      0.69059396,
      0.8684465,
      -0.49102005,
      -0.12724097,
      0.28599796,
      -0.46138108,
      -0.35071003,
      0.6601489,
      0.69640523,
      0.40569994,
      0.11991308,
      -0.29481447,
      0.10322167,
      -0.081359796,
      0.5398824,
      0.3343392,
      0.12651192,
      -0.513074,
      0.6386006,
      -0.3321184,
      0.2200815,
      -0.50267243,
      -0.3009995,
      0.108379304,
      -1.7321843,
      0.19307056,
      0.6826813,
      -0.2722624,
      -0.5350597,
      -0.59851253,
      -0.27418607,
      -0.118866794,
      0.41866353,
      0.5678039,
      -1.6959177,
      -0.07317532,
      0.16947778,
      0.08035297,
      0.46085727,
      0.68578637,
      -0.87363535,
      0.7082144,
      -0.88387847,
      0.6052498,
      -0.7715945,
      0.07603606,
      -0.12007324,
      0.68724173,
      0.9402568,
      -0.6768566,
      -0.034445874,
      -0.44928586,
      0.09141619,
      -0.50462794,
      0.06077834,
      -0.045722686,
      1.1444317,
      0.3620457,
      0.5877498,
      -0.22146311,
      -0.085688286,
      0.85735655,
      -0.05107357,
      -1.4070464,
      -0.03805312,
      0.6457349,
      -1.0750245,
      -0.73022044,
      -0.072518185,
      0.010509506,
      -0.93097,
      -0.20029598,
      1.4468441,
      1.1905938,
      -0.21484943,
      0.14813441,
      0.21121164,
      0.19504133,
      0.78385925,
      0.10012654,
      -0.63690555,
      0.14749171,
      0.78842443,
      0.31775948,
      0.28631485,
      -0.0050383518,
      0.8325986,
      0.8794752,
      -0.26304,
      -0.6397196,
      0.39035395,
      -0.31998786,
      -0.12521751,
      -0.30782878,
      -0.12152516,
      0.013056794,
      -0.30014402,
      -0.4390806,
      -0.14456469,
      0.1679416,
      -0.10364263,
      -0.2791088,
      -0.60312974,
      0.82099545,
      -0.28957096,
      -0.48901552,
      0.64794,
      0.63916755,
      0.4914627,
      0.3085211,
      -0.0041804696,
      -0.4250658,
      0.6842554,
      -0.5609795,
      -0.18395555,
      0.41722354,
      -0.13384569,
      0.36924404,
      0.45170465,
      -0.17335413,
      -0.52504194,
      -0.029107517,
      0.50161225,
      -0.031285465,
      0.41801238,
      0.039873384,
      -0.017107315,
      0.37643406,
      -0.055663534,
      0.27530494,
      -0.30827105,
      0.12642525,
      1.049755,
      0.50533026,
      -0.07103815,
      0.33196968,
      -0.67661977,
      0.17515546,
      -0.049418926,
      -0.362649,
      0.87350535,
      -0.46916804,
      0.066302255,
      0.23449722,
      0.32586777,
      0.28447598,
      0.46055123,
      0.45044115,
      -0.5734051,
      0.48276392,
      0.108534776,
      0.13995197,
      0.11879143,
      0.5831151,
      -0.43995282,
      0.27506268,
      -0.20669925,
      0.95227635,
      0.13030149,
      -0.01825678,
      0.4181557,
      -0.17034025,
      1.4640903,
      0.17254582,
      0.09127524,
      -0.4324998,
      -0.21058609,
      -0.04802552,
      0.05823625,
      0.37671027,
      1.184014,
      -0.12877746,
      -0.18237309,
      -0.51368266,
      -0.40189818,
      -0.6979792,
      -0.028429398,
      0.4239306,
      -0.3513773,
      -0.55812526,
      0.15980941,
      0.26592714,
      -0.09927437,
      0.514347,
      -0.2743884,
      0.30770564,
      0.38088483,
      -0.27563223,
      -0.24331771,
      0.08319222,
      -0.19853388,
      -1.0023323,
      -0.4525731,
      0.3316293,
      -0.438244,
      -0.020320933,
      0.25839725,
      -0.20587851,
      0.54410356,
      -0.9325568,
      -0.4695147,
      -0.63988835,
      1.1148655,
      -0.0059347255,
      -0.18972912,
      0.26615024,
      -0.40370095,
      -0.065420754,
      -0.33876836,
      1.2464586,
      -0.037564985,
      -0.13483498,
      -0.7771206,
      0.6106851,
      0.5959829,
      0.33476683,
      -0.46001402,
      -0.77571535,
      0.6585114,
      -0.22410013,
      0.20452304,
      -0.14508292,
      -0.32052514,
      -1.101367,
      -0.3532154,
      -0.18275607,
      0.09197734,
      -0.6856628,
      0.36343712,
      -0.63383734,
      0.07564894,
      0.39674488,
      0.79563737,
      -0.20110023,
      -0.42985544,
      0.9886834,
      0.051984794,
      0.08955707,
      -0.117024556,
      0.20210804,
      0.34729338,
      0.3825446,
      -0.44910342,
      -0.18353733,
      -0.33568704,
      -0.2252528,
      0.24314773,
      -0.9261101,
      -0.42016092,
      -0.24928801,
      0.020844707,
      0.10132761,
      -0.42038617,
      -0.38733777,
      -0.29388037,
      -0.4443353,
      1.200638,
      0.78043646,
      -0.18178758,
      0.8641929,
      -0.17823157,
      0.23490714,
      0.55147266,
      0.23917495,
      -0.73453987,
      0.47774345,
      1.003629,
      0.51135206,
      -1.001302,
      0.20002164,
      -0.28194997,
      0.022299552,
      1.7400235,
      -0.24873221,
      0.5502999,
      -0.004071589,
      0.57201105,
      -1.2934484,
      -0.44148767,
      -0.9640373,
      -0.027703654,
      -0.12709132,
      -0.6697593,
      -0.38987175,
      0.5046299,
      -0.11642027,
      -0.7022552,
      -0.8217428,
      0.8997373,
      0.5200894,
      0.087853864,
      0.5060091,
      0.05324173,
      0.22342433,
      1.7993889,
      0.4321211,
      -0.38848984,
      0.50682133,
      0.6914817,
      0.14596069,
      0.89344263,
      0.32380384,
      0.03289573,
      -0.8508509,
      0.19864658,
      -0.25989145,
      0.42163053,
      -0.2435246,
      -0.17038102,
      -1.5835688,
      0.36203757,
      0.82902867,
      -0.13912427,
      -0.22732204,
      0.45262071,
      -0.5551059,
      0.14513874,
      0.0031328308,
      -0.31219366,
      0.065685965,
      0.01898735,
      0.20234056,
      -1.2629274,
      0.7101852,
      0.13610616,
      0.8104392,
      -0.12805384,
      -0.12487793,
      -0.7692893,
      0.19640191,
      0.49287462,
      -0.07705655,
      -0.6000807,
      -0.8748131,
      -0.315197,
      -0.38017926,
      -0.1308116,
      -0.6520077,
      0.21485743,
      0.54061764,
      -0.18852523,
      0.18951143,
      0.29757673,
      0.014103255,
      0.13423777,
      0.36546785,
      -0.21317083,
      -0.35702237,
      1.0356311,
      -0.2377223,
      0.23956932,
      0.688631,
      0.7640243,
      0.4516336,
      -0.12904243,
      0.9196641,
      -0.4713097,
      -0.98652625,
      0.29896784,
      -0.6137467,
      -0.8684396,
      -0.5136803,
      -1.405101,
      -0.44467223,
      0.14709339,
      0.09916539,
      -0.5421137,
      -0.86829585,
      1.4245014,
      -0.45143986,
      -0.7232017,
      -0.4549416,
      -0.741236,
      0.58815753,
      -0.37167418,
      -0.58687675,
      1.0642533,
      -0.22263846,
      0.49090582,
      -0.53296846,
      0.30152422,
      0.5004213,
      0.17278515,
      -0.4984166,
      -0.92566085,
      -0.21460168,
      -0.8310862,
      0.23933034,
      -0.13564105,
      0.49737728,
      0.35051703,
      0.846987,
      -0.23860715,
      -0.35594857,
      -0.10473025,
      -0.60061365,
      -0.54344976,
      0.70049846,
      -0.4904745,
      0.7521229,
      0.34224287,
      0.99512035,
      -1.0714834,
      0.6377006,
      -0.3315415,
      -0.26501283,
      0.11749395,
      -0.25909233,
      -0.046318416,
      0.74930847,
      -0.11715377,
      -0.36955407,
      0.9333677,
      -0.27458695,
      0.16808952,
      0.9599035,
      0.08160201,
      0.66472656,
      0.7015641,
      0.540559,
      -0.012627026,
      0.21492615,
      0.09919712,
      -0.011330128,
      -0.6089839,
      0.36973137,
      0.12867385,
      0.46616656,
      -0.3875474,
      -0.11872415,
      -0.4547607,
      -0.25480965,
      0.80557764,
      0.15964445,
      -0.1831858,
      -0.3496598,
      -0.62249845,
      0.42546242,
      1.1328726,
      -0.41925064,
      0.60835826,
      -0.41780037,
      -0.7693475,
      0.06904042,
      -0.022059781,
      -0.80244535,
      -0.4414674,
      1.2806251,
      0.10008881,
      -0.46204332,
      0.20347846,
      -0.07071818,
      0.04505951,
      -0.054836873,
      0.47660604,
      -1.1070675,
      0.6093962,
      0.11846898,
      0.40750626,
      0.17928378,
      1.3119965,
      -0.45324823,
      0.6013947,
      -0.45177835,
      -0.14927095,
      0.6004966,
      -1.735044,
      -0.7496022,
      0.19781741,
      0.7700143,
      0.016854301,
      -0.45051757,
      -0.22149645,
      -0.08725478,
      -0.16944338,
      -0.18977723,
      -0.4129564,
      0.6633288,
      -0.54531753,
      1.6393136,
      1.0203526,
      -0.21515588,
      -1.2041274,
      -0.8404994,
      -1.1433821,
      -0.14388454,
      -0.89992845,
      0.23156446,
      -0.29060492,
      0.14885859,
      -0.5133331,
      1.1531484,
      0.063323155,
      0.2202471,
      -1.455892,
      -0.4707511,
      0.9232741,
      0.28824636,
      -1.6355536,
      1.0404167,
      0.043451898,
      1.0221882,
      -0.58733135,
      -0.10088393,
      -0.31456155,
      0.1599944,
      -0.6151342,
      -1.50503,
      -0.41029373,
      -0.033970308,
      -0.33757004,
      -0.16482358,
      0.29749912,
      0.044750873,
      -1.6351073,
      0.008704613,
      0.35871756,
      0.6565865,
      -1.010806,
      0.73923624,
      0.56312835,
      0.45966277,
      0.43842152,
      0.77144,
      0.7609226,
      -0.48233753,
      0.31018516,
      0.50963324,
      0.48225412,
      0.41235217,
      -0.24472767,
      -0.47595552,
      -1.7776757,
      0.24039392,
      1.3063344,
      -1.0134614,
      0.9705737,
      0.17816687,
      0.54649705,
      -0.6511656,
      -0.6345916,
      -0.19298239,
      -0.17746742,
      -0.46179512,
      0.2882413,
      -0.9125525,
      -0.88116246,
      1.0410793,
      -0.43287024,
      -0.06997934,
      -0.23788185,
      -0.78919786,
      0.061595127,
      -0.51502585,
      1.0297124,
      -1.3257216,
      -0.8422305,
      -1.5716435,
      -0.53357804,
      -0.17129336,
      1.1151057,
      -0.88135993,
      -1.4950154,
      0.17380293,
      0.74544746,
      -0.31391665,
      -0.7227527,
      -0.12702234,
      -0.101955816,
      -0.25421813,
      0.15446866,
      0.5962968,
      -1.3597066,
      0.020102832,
      0.40935373,
      1.8135351,
      -0.10210265,
      0.40314424,
      -1.1012295,
      -0.64751834,
      -0.25397295,
      -0.8140172,
      1.001623,
      -0.311024,
      0.03180536,
      0.21807823,
      -1.0830191,
      0.061545655,
      -0.38732895,
      -0.58905214,
      0.99072933,
      0.028044628,
      1.0278747,
      -0.041418813,
      0.6643113,
      1.4385324,
      -0.48302647,
      -1.3535407,
      -1.3955348,
      0.7398017,
      -0.67744154,
      -0.28963962,
      -0.56578976,
      0.82103235,
      -0.6212092,
      0.23728307,
      0.031826317,
      0.25049278,
      1.4301577,
      -0.4610233,
      -0.013170898,
      0.44625598,
      0.6468358,
      -0.96219045,
      -0.37420312,
      -0.47014806,
      0.09557949,
      0.6833775,
      -1.2199428,
      0.14120218,
      -0.15571053,
      -0.23377915,
      1.3517795,
      1.1353022,
      0.07534494,
      0.43494666,
      -0.33183196,
      0.5148402,
      0.0025225999,
      -0.7254294,
      1.3224938,
      0.31005228,
      -0.69887966,
      0.16865958,
      1.2083058,
      0.31434998,
      -1.1923045,
      0.48451698,
      -0.23937538,
      -0.16353919,
      -0.10602436,
      -0.52124596,
      0.80937326,
      -0.27893835,
      0.31366834,
      -0.9374032,
      -0.35074797,
      0.05568625,
      0.47861603,
      -1.2318116,
      -0.6275835,
      -0.70843565,
      0.14263618,
      0.24756356,
      1.276168,
      0.21489318,
      -1.656565,
      -0.6672234,
      -0.42591828,
      -0.18902674,
      0.0013252385,
      0.9431806,
      0.14979008,
      1.3150052,
      -0.53910017,
      -1.3677388,
      0.8688945,
      0.4428643,
      0.49025548,
      -1.210816,
      0.15255764,
      0.3803955,
      -1.2423787,
      0.352095,
      0.79453295,
      0.723601,
      -0.20776497,
      -0.22227474,
      -0.83364123,
      -1.3526273,
      0.37586495,
      0.52150065,
      -0.7204528,
      -0.12586132,
      -0.714862,
      -0.2828595,
      -0.427278,
      -1.3148724,
      0.14443405,
      0.20240258,
      0.2541586,
      0.5715891,
      -0.069442615,
      0.0016903131,
      0.10873188,
      0.58215934,
      -0.40828472,
      -0.22647548,
      0.009480296,
      0.106133044,
      -0.08450133,
      1.1636336,
      0.18009748,
      -0.3545788,
      -0.23589014,
      -0.38675752,
      -0.016970387,
      -0.6222998,
      0.41557962,
      0.29443008,
      0.42206258,
      0.61879665,
      0.72480315,
      -0.13675116,
      0.025640618,
      0.14646193,
      -0.038628362,
      -0.23631309,
      0.8408553,
      0.14082697,
      0.5879586,
      -0.25926137,
      -0.41119376,
      0.038345344,
      -0.77294075,
      -0.12087754,
      0.4701841,
      -0.1934943,
      -0.10755372,
      -0.53429055,
      0.4819087,
      -0.25797626,
      -0.148124,
      0.12879206,
      -0.4290444,
      -0.23496424,
      -0.36503243,
      -0.21276039,
      0.048926927,
      0.58856314,
      -0.26053968,
      -0.0948252,
      -1.3513252,
      0.49788475,
      -0.041418847,
      0.026350524,
      -0.78913015,
      0.32218325,
      0.7695779,
      -1.1485131,
      0.15141517,
      -0.19367684,
      0.49334323,
      -0.48315203,
      0.31925684,
      -0.76330394,
      0.25791344,
      -0.38310617,
      -0.16779968,
      0.22974996,
      0.028279921,
      -0.35487053,
      -0.57234734,
      -0.12588546,
      0.15444213,
      0.31335536,
      0.05962223,
      -0.41404313,
      0.015214622,
      -0.52752566,
      -0.04977991,
      -0.089375526,
      0.27854148,
      0.7275964,
      0.2761998,
      0.084023185,
      0.32583237,
      0.6730651,
      -0.584652,
      -0.12943006,
      -1.5788052,
      -0.5474222,
      0.8896862,
      -0.4159466,
      1.1034857,
      0.2124074,
      -0.15234362,
      0.7479833,
      0.62580967,
      -1.0696062,
      0.6178742,
      -0.22239065,
      0.79746413,
      0.5130928,
      1.5963854,
      1.5890678,
      -0.16847743,
      -1.6932856,
      -1.8594493,
      2.118982,
      -0.38265696,
      -0.98657537,
      -0.26417568,
      0.930857,
      0.003312569,
      -0.18402289,
      0.9173129,
      0.579842,
      0.8206052,
      -1.6576332,
      0.95226514,
      0.75491625,
      0.67002136,
      -1.352436,
      -1.2156911,
      -0.38840288,
      -0.9360848,
      0.9731489,
      -1.0629787,
      0.20381169,
      -0.6188949,
      0.92295164,
      1.0153333,
      0.7840213,
      1.6631639,
      1.107952,
      -0.5295424,
      1.1513466,
      0.8765405,
      -0.42490548,
      0.95951205,
      -0.04211493,
      0.5109203,
      -0.09350258,
      0.8932885,
      0.6905344,
      -1.0252608,
      -0.018917914,
      -0.038635712,
      0.6573804,
      1.4719876,
      -0.886983,
      1.1035566,
      0.28733265,
      0.52898157,
      -0.90056807,
      1.113603,
      -0.73410803,
      -0.38144645,
      -0.47448322,
      -0.16633277,
      -0.415179,
      0.50924087,
      1.2893862,
      0.08424776,
      -0.481448,
      -0.64881015,
      0.3811279,
      -1.0372045,
      -0.80456287,
      -0.0040751016,
      -0.26376587,
      0.8583872,
      1.4981415,
      -1.4156545,
      -1.1802135,
      0.81005585,
      -0.3794238,
      0.10088048,
      -0.38686597,
      0.35992053,
      0.09236672,
      -1.8304254,
      -0.9040129,
      -0.08707212,
      -0.9487732,
      0.4734106,
      0.17715284,
      -0.968334,
      -0.49888802,
      0.4871496,
      -0.13887767,
      -0.33349487,
      -0.18527989,
      -1.0288776,
      0.24241664,
      -0.92357683,
      -0.019727279,
      -0.58824205,
      -0.27259627,
      0.4928893,
      -0.027255729,
      -0.09979597,
      0.2639957,
      -0.3666812,
      0.3685347,
      0.024310175,
      -0.65289146,
      -0.6088521,
      -0.059257034,
      -0.09378509,
      0.06524429,
      -0.27419856,
      0.6496626,
      -1.1714455,
      -0.12967841,
      -0.26066908,
      -0.7482449,
      0.49950877,
      0.7361965,
      -0.2816299,
      -0.11125965,
      0.15423895,
      -0.45762146,
      -0.42167252,
      0.35967502,
      -0.103292815,
      0.2815157,
      -0.5036218,
      0.31543282,
      0.1734481,
      0.05095509,
      0.14951867,
      0.5304697,
      0.30356017,
      0.42568272,
      0.22151494,
      0.04493377,
      -0.101790756,
      -0.5925278,
      0.6049364,
      0.44809616,
      -0.29827058,
      -0.09530982,
      0.6730045,
      0.6357713,
      -0.59180856,
      0.3718336,
      0.67853403,
      -0.49001253,
      0.3571183,
      -0.06825558,
      -0.07866799,
      -0.7106295,
      0.24813636,
      -1.2903494,
      -0.54458755,
      0.2225487,
      -0.22376588,
      -0.994473,
      -0.3082874,
      -0.33360785,
      0.26060322,
      -0.018179908,
      0.933313,
      -0.57815856,
      -0.53327125,
      -0.63433236,
      -0.27557895,
      0.41277128,
      0.6433071,
      -0.25296476,
      -0.17040133,
      0.6483371,
      -0.43492115,
      -0.6614611,
      -0.03275835,
      -0.108803876,
      0.22309114,
      -0.5747079,
      0.1675272,
      0.20179814,
      -0.034757096,
      0.15923813,
      0.8829123,
      1.1375363,
      -1.0410544,
      0.4337436,
      -0.03296829,
      0.20406748,
      0.10636915,
      -0.26183105,
      0.57018137,
      -0.42449963,
      0.5465558,
      -0.29679045,
      -0.3043681,
      -0.63791317,
      0.52037704,
      0.85090375,
      -0.3454412,
      0.7186111,
      0.9018087,
      -0.36422512,
      0.36729825,
      0.31695026,
      -0.105584055,
      0.6202169,
      -0.8687024,
      1.0394181,
      -0.6819642,
      0.6536069,
      0.25717455,
      -0.76418716,
      1.346843,
      0.8029618,
      -0.29941535,
      0.3314169,
      -0.17019,
      -0.72679317,
      0.31522992,
      0.65094924,
      0.3880533,
      0.5902768,
      0.33931795,
      -0.7493335,
      0.43144503,
      -0.048163846,
      0.112431176,
      0.09712013,
      0.32201195,
      -0.3396704,
      0.786985,
      -0.26148373,
      -1.1484138,
      -0.85453993,
      -0.40184548,
      0.1859875,
      0.4201057,
      0.072065786,
      0.03877808,
      -0.82142067,
      -0.8221686,
      0.24561885,
      0.18087788,
      -1.392266,
      0.4411754,
      -0.07168831,
      -0.98197955,
      0.58427954,
      -1.2952313,
      -0.26132002,
      -0.21483938,
      0.78361785,
      -0.38677105,
      0.783984,
      -0.35405558,
      0.06285502,
      0.99719906,
      -0.0812653,
      -0.017359607,
      -0.42486715,
      -0.60504174,
      -0.77115923,
      0.2726585,
      -0.29820788,
      0.008975943,
      -0.25430396,
      -0.08359928,
      -0.32813784,
      -0.4789852,
      0.9952419,
      -0.49944076,
      -0.1040722,
      0.3947813,
      0.6759813,
      0.5718495,
      0.65605736,
      -0.540587,
      -0.03877978,
      -0.7461517,
      0.14822485,
      -0.7460968,
      0.33093378,
      -0.27104947,
      -0.2879206,
      -0.59420216,
      0.57289696,
      -1.0436146,
      -0.4617612,
      -0.4881592,
      -0.3169186,
      0.33926687,
      0.41313785,
      0.356516,
      0.14581431,
      0.6065243,
      -1.5976312,
      0.8379086,
      0.71755964,
      0.42521963,
      0.035926215,
      0.4795811,
      -0.12372312,
      1.4371758,
      1.3211035,
      -0.13886814,
      -0.25786093,
      -0.643138,
      1.4594115,
      -0.74331325,
      -0.1701371,
      1.3474731,
      0.1435495,
      0.78318024,
      -0.18880412,
      0.24816814,
      0.6745929,
      0.16599727,
      0.1421721,
      1.5424974,
      0.634479,
      1.3713025,
      0.3247977,
      0.28216654,
      -0.86429137,
      -0.85054725,
      -1.3216056,
      0.66308707,
      -0.01308536,
      -0.043843683,
      -0.6010573,
      -0.09029195,
      -0.4401336,
      0.2640474,
      -0.012204489,
      -0.03798174,
      0.7196408,
      1.2311639,
      -0.21581869,
      0.003800612,
      -0.42677116,
      -0.28082338,
      0.03753936,
      -0.33623138,
      -0.4538949,
      -0.1449344,
      -0.9336762,
      -0.65484184,
      1.23748,
      -0.21913712,
      -0.01138758,
      -1.0134343,
      0.37307176,
      -0.1379964,
      1.3334982,
      0.49339524,
      -1.6801795,
      0.2206891,
      -0.35861906,
      0.46541116,
      0.31475377,
      -0.27029246,
      -0.38270155,
      -0.45131636,
      -1.5331,
      0.9186739,
      1.0242904,
      -0.64008754,
      -0.48239133,
      -1.2793682,
      0.36069235,
      0.4101406,
      -0.29060334,
      -1.1257932,
      0.48285088,
      1.0580829,
      -0.13209856,
      -1.1334867,
      0.039869994,
      -0.94539106,
      0.3153822,
      -0.21147685,
      0.012560176,
      -1.1541727,
      -0.3842659,
      -0.60004693,
      1.3727094,
      -0.8598987,
      0.19801593,
      0.7873588,
      -0.24273573,
      0.21512663,
      0.7259584,
      -1.2494406,
      0.48779142,
      0.66839015,
      0.19729184,
      -1.3258426,
      -0.36975223,
      0.5741904,
      -0.79693574,
      -0.30205402,
      -0.13881978,
      -1.6464965,
      0.584153,
      0.43366417,
      -0.92822117,
      -1.0043854,
      -0.41385117,
      -1.2007717,
      -0.19589981,
      0.32901448,
      1.225139,
      -1.4741485,
      -0.24492536,
      -0.24524476,
      -0.44667277,
      0.7951186,
      2.5517662,
      -0.4050433,
      -0.71633065,
      0.96659935,
      0.02474185,
      -0.4062446,
      0.4034021,
      -0.029513806,
      -0.47428572,
      0.45003715,
      -0.024683952,
      0.12217121,
      -0.92781097,
      0.8488846,
      -0.21780048,
      0.52312046,
      -0.8907985,
      0.4332691,
      0.017900372,
      0.49535206,
      -0.122992046,
      0.08632793,
      0.63619727,
      -0.21759965,
      0.79302794,
      1.0017759,
      0.6571632,
      -0.62471735,
      0.36563757,
      -0.35660967,
      -1.108387,
      0.21169548,
      -0.25322235,
      -0.81750107,
      -0.7422235,
      0.5392384,
      0.08600018,
      -0.6193622,
      0.10480663,
      -1.128921,
      -0.24850677,
      -0.18257843,
      -0.14896739,
      -0.27431118,
      -0.52082133,
      0.5074417,
      -0.71327025,
      -0.80425876,
      0.44311616,
      -0.38724852,
      1.0730516,
      0.5735759,
      0.034220994,
      1.1536272,
      0.9064108,
      0.2490107,
      -0.94590586,
      1.1977849,
      1.0566235,
      -0.83779466,
      -0.44720438,
      1.6106426,
      0.7709672,
      0.5721715,
      -0.15180881,
      0.68508375,
      1.6065308,
      -0.8512447,
      0.5826015,
      1.1578084,
      0.33457336,
      -0.84763634,
      0.7635644,
      0.34223178,
      0.35260916,
      0.5578982,
      -0.3567147,
      1.4327011,
      1.2384176,
      -0.51788205,
      -1.7133459,
      -0.32473198,
      -0.6147167,
      -0.20225692,
      -0.019488772,
      -1.5406461,
      -0.19513315,
      0.021481862,
      -1.2322237,
      0.15198377,
      -0.727343,
      -0.40653986,
      -0.056346104,
      -0.51359886,
      0.08598849,
      -0.0726048,
      -0.2946579,
      0.4349945,
      0.33538878,
      0.5987785,
      -0.06878188,
      -0.35725138,
      -0.16679451,
      -0.27395648,
      -0.5905289,
      -0.9115618,
      0.6481611,
      0.027297674,
      0.7728322,
      0.63906586,
      -0.52221406,
      -0.058452345,
      0.3205627,
      0.94440395,
      -0.3968702,
      -0.07491608,
      -0.79807836,
      0.2216559,
      -0.37644696,
      0.08694117,
      0.017641764,
      0.0063674464,
      -0.03284308,
      1.3839374,
      1.0161865,
      -0.27839702,
      0.66875356,
      -0.118941076,
      0.52061665,
      -0.76876956,
      -0.033164818,
      0.6881654,
      -0.5516618,
      0.023903785,
      1.0913264,
      0.17395979,
      0.030587463,
      0.44337296,
      1.0250273,
      -0.61367553,
      0.50059164,
      -0.1892437,
      -0.6848799,
      0.273822,
      0.42883837,
      -0.6593949,
      0.78195137,
      -0.18897083,
      0.8402767,
      -0.2244977,
      0.36079666,
      0.7287747,
      -0.21343073,
      1.2272406,
      0.78155637,
      0.88371176,
      -0.57759875,
      0.75770485,
      0.5362109,
      -0.40715563,
      -0.041084733,
      2.052829,
      -0.031722702,
      0.5379164,
      -0.5070225,
      0.54942375,
      -0.95961404,
      0.32614422,
      -0.37637648,
      0.23724551,
      -0.54076236,
      1.4751712,
      -0.5442715,
      0.929093,
      -0.95274526,
      -0.2801336,
      -0.16684872,
      -1.6521364,
      -0.597214,
      0.39563122,
      2.8130453,
      0.012782795,
      1.4534259,
      0.64302945,
      -0.9648361,
      1.127663,
      -0.32766896,
      -0.6471542,
      2.8345194,
      -1.0397615,
      1.2811198,
      -0.24293803,
      1.5390242,
      -0.5444563,
      -0.6125977,
      0.9092787,
      1.020508,
      -0.31673995,
      -0.08955089,
      -0.7712035,
      0.19588228,
      -0.4385259,
      0.23888049,
      1.1092852,
      1.077098,
      1.9610102,
      -0.35410056,
      1.3859018,
      0.19448932,
      0.6474312,
      0.64638954,
      0.22542332,
      -0.8967287,
      0.20680466,
      -0.19383968,
      -2.04839,
      -0.7157437,
      -0.7430413,
      0.22490145,
      -0.9238656,
      0.6902831,
      -0.46369565,
      -0.7450085,
      -1.1012439,
      -0.33416694,
      0.5280836,
      -2.4125383,
      -0.26193258,
      0.12776195,
      -0.17324632,
      -0.7231247,
      -1.5332851,
      -0.42975444,
      -0.49963588,
      -0.03937889,
      -0.21891142,
      1.0084813,
      -1.6011158,
      1.0482398,
      1.6587507,
      0.0012483741,
      0.30482465,
      0.62285894,
      -0.87499547,
      -1.0916877,
      0.9238491,
      0.03972226,
      -0.4812468,
      -0.97746575,
      1.1821275,
      0.07398871,
      0.041058064,
      0.9238922,
      -0.6597863,
      -0.91160464,
      1.0642095,
      1.4249626,
      -1.248519,
      0.50566643,
      0.71754444,
      0.627281,
      -1.0442177,
      -0.42968336,
      -1.3187063,
      0.6577051,
      -0.6412338,
      -0.09718081,
      -0.036463216,
      0.19042242,
      0.85988665,
      0.5911175,
      0.040181827,
      0.55497414,
      -0.08534273,
      0.18980767,
      -0.5233293,
      -0.26885694,
      0.7381971,
      0.23240456,
      -0.23028977,
      -0.005693151,
      -0.104758985,
      0.3636878,
      -0.45400393,
      -0.44173765,
      -0.99382436,
      -0.8069752,
      0.00084749237,
      0.39744997,
      0.037214406,
      0.1721971,
      0.09074471,
      0.61126715,
      -0.44713992,
      0.36343837,
      0.027363285,
      -0.49946487,
      0.1262272,
      0.04307759,
      -0.1833148,
      0.91654587,
      0.03674481,
      -0.6593786,
      0.7826739,
      0.08371565,
      -0.29425535,
      0.6115829,
      -0.052291885,
      -0.066827424,
      0.9497372,
      0.056191158,
      -0.05692085,
      -0.10028305,
      0.05707821,
      -0.41887173,
      -0.07914922,
      -0.44740996,
      0.3783434,
      0.31078577,
      0.17112695,
      0.42421243,
      -1.030085,
      -0.3429731,
      0.5944554,
      0.6394101,
      -0.4896002,
      -0.4330313,
      0.205452,
      -0.0011751512,
      0.28820342,
      -0.26915288,
      0.22043422,
      -0.16348654,
      -0.9551268,
      0.3118489,
      -0.018285535,
      0.427809,
      0.031798538,
      0.80658245,
      -0.55515355,
      0.53200346,
      0.31235504,
      -0.0068654297,
      -0.122815005,
      -0.20986576,
      -0.41940883,
      -0.8553828,
      0.7019816,
      0.74548,
      0.17260545,
      0.046481505,
      0.7254216,
      -0.5123406,
      0.7717928,
      -0.7334395,
      0.40485287,
      0.46278346,
      -0.9670445,
      -0.35317427,
      -0.5426377,
      0.812345,
      0.5961399,
      -0.06166265,
      0.25080094,
      -0.2772787,
      -0.6696342,
      -0.1428371,
      0.2449218,
      -0.8997808,
      0.84818923,
      0.063475445,
      -0.050381597,
      0.49525937,
      -0.3773585,
      1.0836887,
      -0.46510762,
      -0.003362991,
      1.1964083,
      0.42327595,
      -1.0490623,
      -1.2369871,
      0.32006904,
      -0.8159439,
      -0.9756638,
      -0.30323222,
      -1.3075869,
      -0.9258054,
      -0.1759333,
      -0.5657662,
      2.3452878,
      -2.5901976,
      0.7785991,
      -0.43768945,
      -0.49183795,
      0.46386483,
      -1.1715333,
      -1.0091962,
      0.12452956,
      0.28192487,
      0.5876039,
      1.1030395,
      -0.7502271,
      -1.1446036,
      -0.5229323,
      -0.38244155,
      0.075448655,
      0.64241713,
      0.13211146,
      -0.45174667,
      0.29163054,
      -0.7091973,
      -0.34228945,
      -0.48970932,
      -0.7473447,
      0.19071898,
      0.20496777,
      0.1072897,
      0.7057816,
      -0.6902543,
      -0.9646779,
      0.23910865,
      -0.48302975,
      0.87817353,
      0.6950869,
      0.39160728,
      -0.9532326,
      1.1133134,
      -0.09888749,
      0.07124895,
      0.34798932,
      -0.76555467,
      0.26145676,
      0.65938634,
      0.0038518673,
      -0.4841974,
      0.12308151,
      0.32100472,
      0.16279599,
      0.4528461,
      -0.7133107,
      0.6014712,
      -0.07659379,
      0.3951139,
      0.44013909,
      0.3895062,
      -0.6465621,
      1.4855291,
      -0.253316,
      0.5124128,
      0.6719131,
      0.31210786,
      0.0485679,
      -0.24185672,
      0.6156217,
      -0.689714,
      0.64888334,
      -0.7126456,
      -0.6271436,
      -0.29260093,
      0.5856898,
      -0.11933191,
      1.1163847,
      -0.07621689,
      1.6022656,
      0.3350123,
      0.027311075,
      0.45677176,
      0.27325845,
      -0.40287974,
      0.11900614,
      -0.27877432,
      0.039107658,
      -0.26929936,
      0.7140963,
      -0.8205311,
      0.08796725,
      -0.341098,
      -1.3418655,
      -0.46791074,
      0.5163426,
      0.9333473,
      0.33254495,
      1.3871638,
      0.89999247,
      -0.5612561,
      1.1086978,
      0.07569718,
      -0.7288911,
      0.84804404,
      -0.79821926,
      1.4660599,
      0.15173817,
      0.9583514,
      -0.8738405,
      -0.08096506,
      0.83445215,
      0.37991938,
      -0.04402899,
      0.37487307,
      0.15086052,
      -0.9366617,
      0.27563447,
      0.39967173,
      0.9225779,
      -0.115475416,
      0.41260582,
      -0.36076403,
      0.44048855,
      0.5518037,
      -0.299649,
      0.46599,
      -0.0067984164,
      -0.069290526,
      0.56904775,
      0.5890465,
      -1.0502026,
      0.28553563,
      -0.3815128,
      0.74477255,
      -0.24187763,
      -0.03470217,
      0.02073692,
      -0.69499415,
      -0.61032873,
      0.00029068743,
      0.12041068,
      -1.3776742,
      -0.24466418,
      0.1105297,
      0.2633055,
      0.26979458,
      -0.795074,
      -0.32895374,
      0.025117649,
      0.37394565,
      -0.2818386,
      -0.11060882,
      -0.45612645,
      0.71241033,
      1.2479612,
      -0.55182064,
      -0.010377261,
      -0.30333847,
      -0.21312965,
      -0.2666556,
      0.8035953,
      -0.46250758,
      -0.14484213,
      -0.59274036,
      0.33350977,
      -0.7308753,
      0.107859485,
      0.74020696,
      -0.4516198,
      -0.52578366,
      -0.09114491,
      0.5321207,
      -1.1226825,
      -0.4036098,
      0.45721644,
      0.14954372,
      -1.1627698,
      -0.21556477,
      -1.4009985,
      0.5183929,
      -0.5320555,
      -0.19609341,
      -0.60332656,
      0.8539737,
      -1.7395904,
      -1.0027659,
      1.134958,
      -0.2030888,
      -0.5372913,
      0.54618603,
      -1.2350526,
      0.43631047,
      0.331559,
      -0.86472815,
      -0.7699807,
      0.20060146,
      0.61239165,
      -0.58238655,
      -0.41088885,
      0.098319806,
      -0.6144312,
      1.3469517,
      0.24780838,
      -0.7004641,
      -0.8875404,
      -0.2919147,
      -1.0837057,
      0.36639374,
      0.8520661,
      0.46963048,
      -1.5695617,
      -0.47227338,
      0.0150482,
      -1.0592742,
      0.72353154,
      2.0530977,
      -0.049049962,
      0.12737414,
      1.2079673,
      0.05921579,
      -0.03456073,
      0.05858423,
      0.047216106,
      -0.77337766,
      0.8727844,
      0.031042296,
      0.45885906,
      -1.0862036,
      -0.10908053,
      -0.087169744,
      0.42931786,
      -0.82790416,
      0.49344155,
      -0.31679258,
      0.124851,
      -0.12737258,
      0.6486312,
      0.5445203,
      -0.71430284,
      0.28102422,
      0.8861668,
      0.36926118,
      -0.9038655,
      -0.20285024,
      -0.59281856,
      -0.6727614,
      0.03351953,
      -0.29301956,
      -1.3774822,
      -0.59358656,
      0.75142705,
      0.6504016,
      -1.2172403,
      -0.2367579,
      -0.37153232,
      -0.7503294,
      0.087572955,
      0.37029067,
      0.30237365,
      -0.58285356,
      0.43369648,
      -0.45349017,
      -1.1491654,
      -0.25083125,
      -0.40065336,
      1.1088641,
      -0.07718779,
      -0.55658937,
      0.15169491,
      0.88860655,
      0.59059477,
      -0.7928567,
      1.5128701,
      0.76787966,
      -0.17234775,
      -1.0183611,
      1.5317259,
      0.5493984,
      0.32526568,
      0.34299353,
      0.69474405,
      1.285733,
      -0.7925415,
      -0.14847603,
      -0.1896449,
      -0.20589331,
      0.6206751,
      0.615196,
      -0.77359617,
      -0.44528705,
      -0.5680293,
      -0.51590925,
      -0.9833814,
      -1.0190414,
      -0.016049726,
      0.1628965,
      -0.639228,
      0.84994763,
      0.3404597,
      0.070592225,
      -1.0675257,
      -0.5720863,
      0.028210595,
      0.21259087,
      0.56524056,
      -0.6787827,
      0.040964335,
      1.1760683,
      0.13385841,
      -1.1671215,
      0.7559345,
      0.72867054,
      -1.0993412,
      -0.56290895,
      -0.15765256,
      -0.2197428,
      -0.20740196,
      0.4583085,
      -0.9374167,
      0.5841006,
      0.0007881224,
      0.04102236,
      0.42886764,
      0.018970847,
      -0.032572746,
      0.10255441,
      1.0151948,
      0.11764304,
      0.17070213,
      -0.18479125,
      -1.9204917,
      -0.5498586,
      0.34998912,
      -0.69297206,
      0.038624234,
      -0.82047653,
      0.33533263,
      -0.5140854,
      -0.6414543,
      0.20529868,
      -0.54760313,
      -0.5119191,
      1.044081,
      0.39189503,
      -0.0045803674,
      0.7921058,
      -1.4623141,
      0.50801784,
      -0.5816752,
      0.6837606,
      -0.87219125,
      -0.80800503,
      -0.7247704,
      0.6686584,
      1.1474557,
      -1.0079066,
      -0.35838416,
      -1.1607385,
      -0.24102695,
      -1.1320069,
      0.7892063,
      -0.5586246,
      0.89697695,
      -0.93356365,
      -0.071772255,
      0.21183327,
      0.2360056,
      0.7839107,
      -1.498098,
      -0.33936462,
      0.29064518,
      0.9183041,
      0.041911192,
      0.18728957,
      -0.5807093,
      -0.38642436,
      -1.2846336,
      0.10359687,
      0.9609784,
      1.0077896,
      1.0071121,
      0.69851565,
      -0.24449725,
      0.50335455,
      0.25606143,
      0.67985463,
      0.12120061,
      -0.99424,
      1.3637625,
      1.071256,
      0.46265942,
      0.81626195,
      0.93614364,
      1.4338205,
      -1.3510909,
      -0.6565725,
      0.2933085,
      -2.0502295,
      -0.08206778,
      -0.14658289,
      -0.80178565,
      -0.0014381465,
      0.35755345,
      -0.59321815,
      0.6416215,
      -2.0954146,
      -0.7342555,
      -2.1274273,
      0.32936046,
      0.8351457,
      -0.96809745,
      0.5192487,
      -0.25229764,
      0.8466825,
      0.45068818,
      1.272258,
      -1.2921163,
      -1.065105,
      -1.1567943,
      0.25265232,
      0.80227005,
      -0.21418019,
      0.4094344,
      -0.4057264,
      -0.8175793,
      -0.7616434,
      -0.6892439,
      -0.9044759,
      0.7257267,
      -0.21077971,
      0.47467163,
      -0.4375967,
      -0.46339583,
      -0.7045146,
      -0.4323973,
      0.23244849,
      0.16374211,
      1.362088,
      0.06595521,
      0.033634372,
      0.8595147,
      1.3734947,
      -0.4255037,
      0.57714295,
      -0.90331095,
      -1.5277047,
      -0.004025716,
      0.33341727,
      1.6534283,
      -1.3002402,
      0.26914093,
      0.34815687,
      0.32593003,
      -0.77973187,
      -1.0388007,
      0.9905131,
      -0.5721668,
      0.4625313,
      -0.76073885,
      0.26261988,
      -0.09608171,
      2.3055878,
      -1.4643877,
      0.56117535,
      0.42166823,
      0.79540277,
      -0.56832457,
      1.3391185,
      1.306963,
      0.93831366,
      0.19557713,
      -1.3527458,
      1.5824071,
      1.8080875,
      0.08660189,
      -0.38120905,
      1.0671388,
      0.44707426,
      0.95632654,
      -0.37754312,
      0.70620143,
      0.830417,
      -0.34790352,
      1.1267724,
      -0.39188674,
      -0.14121908,
      0.40633252,
      -0.49971443,
      0.9027627,
      0.32041362,
      0.08332332,
      0.45585242,
      0.595847,
      -0.06361102,
      -0.012785543,
      1.1471895,
      0.06411623,
      -0.674853,
      0.027921215,
      -0.20950155,
      0.34235454,
      0.6567847,
      0.21226634,
      0.5887771,
      -1.2260649,
      0.7868909,
      -1.2645226,
      -0.41113824,
      1.0079122,
      0.3502935,
      0.10859446,
      0.42620897,
      0.08951533,
      0.21570314,
      -0.3852263,
      1.3638067,
      0.17238325,
      -0.040500764,
      0.8400705,
      0.8072182,
      0.8918413,
      -0.20814489,
      -0.075024925,
      -0.7137891,
      0.99079406,
      0.03532636,
      -0.12340382,
      -0.77944094,
      0.38711044,
      -1.0994587,
      0.009758274,
      -0.86009616,
      -0.4476985,
      0.121625364,
      0.58520705,
      0.29435715,
      -0.27077338,
      0.0010024142,
      0.15052141,
      0.010163619,
      0.59826,
      -0.29604664,
      -0.46881643,
      -0.16497028,
      -0.893946,
      -0.40076092,
      0.13131829,
      -0.44121113,
      -0.595018,
      -0.2098494,
      0.19823804,
      1.1746209,
      -0.1390122,
      -0.8279336,
      -0.41625637,
      0.40153766,
      0.33079177,
      0.66811645,
      -0.8145129,
      -0.5020553,
      -0.27022547,
      -0.5702989,
      0.09763734,
      0.9141692,
      -0.0784246,
      0.6573721,
      -0.36726257,
      0.3200795,
      1.152161,
      0.41149113,
      -0.10258661,
      0.3828914,
      1.204961,
      1.0987909,
      -0.9168124,
      0.4667997,
      0.41732827,
      0.17297219,
      0.0019794777,
      -0.6162572,
      -0.38959298,
      -0.27570975,
      -0.3134751,
      -0.53333116,
      0.4505888,
      -0.50232667,
      0.010035385,
      0.5305989,
      -0.42147923,
      -0.17683695,
      0.5037709,
      -0.4090628,
      0.16752985,
      -0.58212763,
      0.67143255,
      0.5065012,
      -0.60004056,
      0.35987556,
      -0.09361718,
      -0.01866305,
      0.36107263,
      -0.27469146,
      -0.17514613,
      0.7759517,
      0.7411076,
      -0.18898772,
      0.25735182,
      0.69814694,
      0.3132646,
      -1.19433,
      0.9094023,
      0.13203111,
      0.08212597,
      -0.058368348,
      -0.57311285,
      -0.75803703,
      0.18130256,
      0.576654,
      -0.36213616,
      0.46082804,
      0.5484158,
      -0.09878816,
      0.25247064,
      -0.1257495,
      0.82521814,
      -0.13468485,
      0.34029058,
      0.0913014,
      -0.6526965,
      -0.5271821,
      -0.9471507,
      -0.39188924,
      -0.017370267,
      -0.5200338,
      -0.293029,
      0.17118339,
      -0.13178362,
      -0.51817226,
      0.2139003,
      -0.16697386,
      -0.8380601,
      -0.6377749,
      0.46726188,
      -0.31913143,
      -0.41915664,
      0.6960295,
      -0.4551274,
      0.07345816,
      -0.4893862,
      0.87128687,
      -0.31560025,
      0.7662941,
      -0.15108678,
      0.15421484,
      0.81678176,
      0.18479797,
      0.30573276,
      0.20663346,
      0.11016033,
      -0.2516859,
      -0.56228983,
      0.40565565,
      0.652746,
      -0.09639521,
      0.28395286,
      -0.05114948,
      -0.4042393,
      -0.14768058,
      -0.6538658,
      -0.57453376,
      0.6424933,
      0.96510553,
      -0.08795516,
      -0.13032234,
      0.102429114,
      0.21234018,
      -0.32558784,
      -0.43444347,
      0.33361453,
      0.290926,
      -0.24176991,
      -1.0767242,
      -0.699664,
      -0.5374872,
      0.86660564,
      0.021520035,
      0.40340185,
      0.6156899,
      -0.25528792,
      -0.18056259,
      -0.08952865,
      -0.5992617,
      -0.22729906,
      -0.14214619,
      -0.2933033,
      -0.1315695,
      -0.59292406,
      0.5466709,
      0.0820555,
      -0.35342887,
      -1.2119054,
      -0.9947796,
      -0.22744267,
      0.48159373,
      1.105187,
      -1.2930794,
      0.25297344,
      0.9983611,
      -0.53410876,
      -1.0418259,
      0.57545096,
      0.4080626,
      -0.58450276,
      -0.095602766,
      -0.044304818,
      -0.2940394,
      -0.72865653,
      -0.0052127326,
      -0.8502523,
      0.35384277,
      0.28496298,
      0.19464158,
      0.8771965,
      0.31187844,
      0.25674114,
      -0.24368061,
      0.5337344,
      -0.13806728,
      0.17711936,
      -0.14243202,
      -1.8334451,
      -0.80753046,
      0.20751114,
      -0.82833004,
      -0.7085685,
      -0.083490275,
      -0.101322815,
      -0.34657168,
      -0.15884519,
      0.42363307,
      -0.6732737,
      -0.595982,
      0.71173203,
      0.4483056,
      -0.3247332,
      0.07359542,
      -1.2501642,
      0.2691439,
      -0.18313643,
      0.7356932,
      -0.5697629,
      -0.0016207141,
      -0.6628059,
      1.2927525,
      0.92557144,
      -0.051164623,
      -0.27440268,
      -0.65981585,
      -0.13846658,
      -0.66419864,
      0.21642362,
      0.88543856,
      0.1060989,
      -0.6261017,
      0.54529274,
      0.18022543,
      0.2691902,
      0.66517127,
      -0.8140955,
      -0.5451656,
      1.2360708,
      0.55673844,
      -0.38602176,
      0.33694276,
      0.13161223,
      -0.15405191,
      -0.13851771,
      -0.17796269,
      0.764107,
      0.8126897,
      0.5846528,
      0.036630493,
      0.4891011,
      -0.1501935,
      1.0591304,
      0.69878036,
      -1.3364974,
      0.71679795,
      0.07739277,
      0.45483133,
      -0.13650575,
      -0.24904835,
      0.89308286,
      0.8449084,
      -0.39332435,
      -1.8718573,
      0.38841784,
      -0.08410644,
      -0.34781685,
      -0.090705246,
      -0.9167043,
      -0.71384376,
      -0.2249302,
      -1.3938932,
      0.79286927,
      -0.2849049,
      0.71050847,
      -0.4331843,
      -1.002018,
      1.1809599,
      -0.37222862,
      -1.0385036,
      0.38350037,
      0.7433581,
      0.7306122,
      0.07775823,
      0.303991,
      -0.86622596,
      0.16226144,
      -1.1160879,
      -1.304655,
      0.82919425,
      -0.85191226,
      0.38975102,
      -0.16729636,
      -0.2140085,
      -0.5465773,
      0.67888194,
      0.32376817,
      0.3690089,
      0.83244115,
      0.87923986,
      0.58778065,
      0.6299753,
      0.36471903,
      -0.3095206,
      -0.5664739,
      0.13669115,
      1.4671917,
      0.74976814,
      -0.9125268,
      1.0618914,
      -0.056936543,
      0.24825154,
      1.0112116,
      0.25340953,
      1.2116905,
      0.10025631,
      0.099339075,
      0.2876779,
      -0.089593224,
      -0.96620166,
      1.2673906,
      0.48978266,
      -1.0694474,
      0.13876139,
      -0.09478937,
      -0.651031,
      0.42595828,
      0.85141087,
      -0.49192998,
      -0.6692334,
      0.9348387,
      1.2349622,
      -0.2581589,
      -0.5456782,
      0.8732228,
      -0.42801154,
      1.342846,
      -0.3563627,
      -0.8839179,
      -0.53601515,
      -1.1218468,
      -1.1585743,
      -0.4070633,
      0.4974134,
      0.459604,
      -0.021798376,
      0.53390867,
      -0.47726953,
      -0.39729077,
      -0.23525362,
      1.0541588,
      -1.2055143,
      0.09770374,
      -1.8915446,
      0.085937575,
      0.46155453,
      0.011542646,
      0.4523092,
      -0.36092755,
      0.08479537,
      -0.21828526,
      -0.2571998,
      -0.40948987,
      -0.18770035,
      0.6091615,
      -0.6248214,
      -0.64243895,
      -0.084376104,
      0.42677924,
      -0.1283946,
      -0.8370802,
      -0.0954301,
      1.8098917,
      -1.801158,
      0.59272885,
      -0.14957778,
      -0.20465137,
      0.17438847,
      -0.9702603,
      -0.49462467,
      0.1953249,
      0.13776848,
      0.45456728,
      0.73887235,
      -0.45831773,
      -0.21351434,
      -0.45535168,
      -0.31783617,
      1.2246103,
      0.6564519,
      0.074513026,
      -0.21313637,
      0.6786007,
      -0.3567324,
      -0.14529435,
      -0.34514755,
      -0.99064064,
      -0.07953712,
      -0.80863833,
      0.7057894,
      0.21066408,
      -0.8395632,
      -1.3050294,
      -0.53656495,
      0.37797233,
      0.788461,
      1.1455863,
      -0.39217997,
      -0.967142,
      1.126489,
      -1.0375354,
      0.16818862,
      0.548629,
      -0.2381297,
      0.56405014,
      0.35881415,
      -0.17610303,
      -0.29979327,
      -0.06789821,
      -0.29071385,
      -0.24045874,
      0.10855691,
      0.4066308,
      -0.59101945,
      0.026828408,
      0.61350685,
      0.44989356,
      0.31605667,
      -0.12835595,
      1.1802648,
      0.2002553,
      0.217376,
      0.77567136,
      0.6116718,
      -0.098722495,
      0.04023725,
      0.44126254,
      -0.2902192,
      -0.17187575,
      -0.011588531,
      -0.46700847,
      -0.38952404,
      0.9529141,
      -0.17461364,
      0.1263073,
      -0.630887,
      1.461639,
      0.5140612,
      0.43886912,
      -0.42053777,
      0.47017455,
      -1.3813136,
      0.02188756,
      -1.5978633,
      0.3069693,
      1.0232298,
      -1.0133274,
      0.30248564,
      -0.8748683,
      -0.43510714,
      -0.12865585,
      -1.4555795,
      0.03762461,
      0.13059068,
      0.30007556,
      0.5191019,
      -0.6762538,
      -0.26391408,
      0.026151314,
      -0.45021352,
      -0.781675,
      0.2813458,
      1.9975297,
      -1.2825933,
      0.9110505,
      1.147198,
      -0.111590795,
      -0.44263947,
      -0.32228547,
      -0.8719756,
      -0.004981487,
      -0.25928515,
      0.23621462,
      0.579545,
      0.19688563,
      0.027752992,
      0.21691656,
      -0.06409196,
      0.69198704,
      0.55691224,
      -0.0007058757,
      -0.64307123,
      1.2329136,
      -0.16269583,
      0.38397178,
      -0.36441517,
      -1.4264638,
      -0.05597888,
      -1.2140392,
      0.35588357,
      0.7914384,
      -0.586384,
      -0.8799685,
      -0.4236951,
      -0.1285556,
      0.0007960596,
      0.51537156,
      -0.019838855,
      -1.6710123,
      0.06931135,
      -0.17415689,
      -0.3336972,
      0.7115858,
      0.5543307,
      -0.23376176,
      0.5662884,
      -1.4630611,
      0.36315,
      -0.36653733,
      0.2223639,
      -0.54030734,
      0.48553634,
      0.84334606,
      -0.7962809,
      0.33100164,
      0.28207064,
      0.63854283,
      -0.32966638,
      -0.2247679,
      -0.10832086,
      1.0509162,
      -0.0067676213,
      0.58274263,
      0.1491867,
      -0.09904303,
      -0.41271093,
      -0.5022133,
      -1.3277062,
      0.17911898,
      0.7719669,
      -1.1775873,
      -1.1418376,
      0.46408165,
      -0.05292356,
      -0.4816594,
      -0.519898,
      1.4259536,
      1.0610551,
      -0.17680837,
      -0.17095198,
      -1.3580095,
      0.9014384,
      0.1348283,
      -0.24827056,
      -0.70620894,
      0.41865665,
      0.026677333,
      0.7987059,
      1.0249683,
      -0.07334404,
      2.4073863,
      -0.2380302,
      0.47224224,
      -0.33815342,
      -0.41146943,
      -0.97513705,
      -0.38233325,
      0.07009203,
      0.007648225,
      0.94072783,
      0.25680152,
      -0.5823414,
      -0.19205318,
      0.213852,
      -1.024962,
      -0.21410885,
      1.3204185,
      -0.46995327,
      0.4748313,
      -0.5162208,
      0.8899965,
      0.33064014,
      -0.07245164,
      0.19253004,
      0.7976985,
      0.5369969,
      0.6830213,
      0.25157475,
      -0.12818329,
      -0.2306604,
      -0.4850067,
      -0.7876001,
      1.828526,
      -0.6117561,
      -0.019068278,
      -0.38708186,
      -0.16146034,
      -1.271892,
      0.5335287,
      -1.2541037,
      0.075103216,
      -0.29256022,
      0.78964865,
      0.52913153,
      -0.2037177,
      -0.3199966,
      0.94356066,
      0.51682687,
      -0.48679358,
      0.040941693,
      -0.110854976,
      -0.7876536,
      -1.74888,
      0.68496734,
      0.5798679,
      -0.5689736,
      -1.1054198,
      1.1735995,
      0.3907336,
      2.2206607,
      0.5261245,
      -0.8175373,
      -0.5661215,
      0.89589924,
      0.604432,
      0.57807577,
      0.16337194,
      0.079074614,
      -1.6985168,
      0.14408778,
      0.2942022,
      1.4958712,
      -0.53129125,
      0.32145542,
      -0.8492462,
      -0.73492306,
      1.1374022,
      0.4218469,
      0.707212,
      0.1093522,
      1.9594663,
      0.6497938,
      -0.98560065,
      0.10470897,
      1.7754997,
      0.02446048,
      0.41596806,
      -0.695517,
      -0.6753933,
      -1.7011092,
      0.04528806,
      1.3120773,
      -0.5169578,
      1.0809513,
      -0.39116013,
      -0.57001203,
      0.34830654,
      -0.19386505,
      0.39069688,
      0.56546605,
      -0.21345927,
      0.84364045,
      0.1278969,
      -0.15827109,
      -0.45559332,
      -0.81673443,
      0.30980763,
      0.81105167,
      -0.0558398,
      0.21730681,
      0.9546858,
      -0.54840356,
      -1.3073047,
      0.86207455,
      -0.65613645,
      -1.4926463,
      0.89328605,
      0.40704963,
      0.30678788,
      0.94028515,
      -0.47168532,
      0.00991264,
      -0.6475426,
      -0.09439431,
      0.1709211,
      0.004582524,
      -1.068023,
      0.337271,
      -0.6017548,
      -0.17493673,
      -0.7922441,
      0.1057741,
      -1.134561,
      0.24532521,
      -0.10425502,
      0.8448086,
      0.75265217,
      -0.4982114,
      1.0810425,
      0.3173085,
      -0.5160134,
      0.2913969,
      1.3619592,
      -0.50945455,
      0.24017449,
      0.17390797,
      0.12820642,
      -0.42715973,
      0.9391879,
      0.867813,
      0.518115,
      0.31728485,
      0.07731322,
      0.19947492,
      0.69208646,
      0.050100897,
      1.0841626,
      -0.5275945,
      -0.17208415,
      -1.3186687,
      1.0209451,
      -1.3723476,
      -1.0341601,
      0.06766909,
      -0.31445393,
      -0.49256566,
      -0.7197683,
      0.14411372,
      0.19640361,
      -1.101416,
      0.7227813,
      0.3949186,
      -0.9408408,
      0.13618048,
      0.13277446,
      0.31386068,
      0.35598582,
      1.1574419,
      -1.591145,
      -0.097874455,
      1.2128129,
      0.6377604,
      -1.2738931,
      0.31412432,
      -0.78958577,
      0.44369566,
      0.002448087,
      -1.1330837,
      0.5801908,
      0.31704772,
      0.61825705,
      -0.6377029,
      0.7261638,
      0.6753532,
      -0.37520057,
      0.04276239,
      -0.31853256,
      -0.43111956,
      0.5758108,
      -0.080008686,
      -0.4464477,
      0.82627714,
      0.31984097,
      -0.30632246,
      -0.59768575,
      0.026543282,
      -0.088972874,
      0.40314132,
      0.1465434,
      -0.9018217,
      0.2439799,
      0.3290009,
      0.6735253,
      -0.35091475,
      0.8986133,
      -0.5020488,
      -0.3906701,
      -0.47332335,
      0.4075621,
      0.31895116,
      -0.11980929,
      -0.016208466,
      -0.7008794,
      -1.3357638,
      -0.3540513,
      -0.077772975,
      -1.4865985,
      -0.063935466,
      -0.22018765,
      0.06016855,
      0.008897959,
      0.62993085,
      -1.0060862,
      0.023173323,
      -0.16893668,
      0.97931087,
      -0.38127342,
      0.23040995,
      0.3040791,
      0.6874499,
      -0.26190218,
      -0.19228396,
      -0.30878294,
      0.09445951,
      -0.115929164,
      0.022818564,
      0.18817756,
      -0.58610326,
      -0.17458221,
      0.26592702,
      0.6903469,
      0.17093949,
      0.5987197,
      0.07470346,
      0.23772272,
      0.33675086,
      1.25601,
      -0.13789432,
      -0.24520957,
      -0.93490684,
      0.6014379,
      0.019778563,
      -0.072352655,
      0.4791161,
      -0.17899339,
      -0.09769049,
      0.083190106,
      0.5672295,
      -0.16506618,
      0.7048738,
      0.2804778,
      -0.4594264,
      0.16292946,
      -0.41293097,
      0.15691625,
      -0.19337147,
      -0.6868276,
      -0.15722847,
      -0.2337502,
      0.12735696,
      -0.7837376,
      -0.44236177,
      0.51698625,
      0.3229557,
      -0.7103256,
      -0.3195609,
      -0.08465661,
      -0.3014596,
      0.15302457,
      -0.37836647,
      -0.8997391,
      -0.07180881,
      -0.31473243,
      -0.4079986,
      0.12202794,
      0.017430332,
      -0.29714453,
      -0.09377204,
      0.72026086,
      -0.25829336,
      0.33885393,
      -1.4660612,
      1.1296896,
      1.2993302,
      -0.57017547,
      0.43714607,
      0.27966323,
      -0.09806954,
      1.1140238,
      0.46890676,
      -0.0076051117,
      1.0132892,
      0.021545334,
      0.7349145,
      -0.3302351,
      0.6273664,
      1.1935989,
      -1.377158,
      1.4304383,
      0.31692874,
      0.043013863,
      0.07819924,
      -0.74617547,
      -0.7641814,
      0.836575,
      0.9720739,
      0.30872822,
      0.9364496,
      0.7703457,
